<?xml version="1.0"?>
<MethodSetup Method="DNN::DNN CPU">
  <GeneralInfo>
    <Info name="TMVA Release" value="4.2.1 [262657]"/>
    <Info name="ROOT Release" value="6.18/04 [397828]"/>
    <Info name="Creator" value="bora"/>
    <Info name="Date" value="Tue Mar 24 17:39:04 2020"/>
    <Info name="Host" value="Linux pauli 5.0.0-37-generic #40~18.04.1-Ubuntu SMP Thu Nov 14 12:06:39 UTC 2019 x86_64 x86_64 x86_64 GNU/Linux"/>
    <Info name="Dir" value="/home/bora/smcedm/Analysis/ml_training"/>
    <Info name="Training events" value="7008"/>
    <Info name="TrainingTime" value="4.65888977e-01"/>
    <Info name="AnalysisType" value="Classification"/>
  </GeneralInfo>
  <Options>
    <Option name="V" modified="Yes">True</Option>
    <Option name="VerbosityLevel" modified="No">Verbose</Option>
    <Option name="VarTransform" modified="Yes">N</Option>
    <Option name="H" modified="Yes">False</Option>
    <Option name="CreateMVAPdfs" modified="No">False</Option>
    <Option name="IgnoreNegWeightsInTraining" modified="No">False</Option>
    <Option name="Layout" modified="Yes">TANH|128,TANH|128,TANH|128,LINEAR</Option>
    <Option name="ValidationSize" modified="No">20%</Option>
    <Option name="ErrorStrategy" modified="Yes">CROSSENTROPY</Option>
    <Option name="WeightInitialization" modified="Yes">XAVIERUNIFORM</Option>
    <Option name="Architecture" modified="Yes">GPU</Option>
    <Option name="TrainingStrategy" modified="Yes">LearningRate=1e-1,Momentum=0.9,Repetitions=1,ConvergenceSteps=20,BatchSize=256,TestRepetitions=10,WeightDecay=1e-4,Regularization=L2,DropConfig=0.0+0.5+0.5+0.5,</Option>
  </Options>
  <Variables NVar="15">
    <Variable VarIndex="0" Expression="br_njets" Label="br_njets" Title="br_njets" Unit="" Internal="br_njets" Type="F" Min="4.00000000e+00" Max="1.20000000e+01"/>
    <Variable VarIndex="1" Expression="br_scalar_HT" Label="br_scalar_HT" Title="br_scalar_HT" Unit="" Internal="br_scalar_HT" Type="F" Min="1.37262863e+02" Max="2.04707373e+03"/>
    <Variable VarIndex="2" Expression="br_sphericity" Label="br_sphericity" Title="br_sphericity" Unit="" Internal="br_sphericity" Type="F" Min="2.35797162e-03" Max="8.90967906e-01"/>
    <Variable VarIndex="3" Expression="br_jet_pt[0]" Label="br_jet_pt[0]" Title="br_jet_pt[0]" Unit="" Internal="br_jet_pt_0_" Type="F" Min="3.28571320e+01" Max="6.96180298e+02"/>
    <Variable VarIndex="4" Expression="br_jet_pt[1]" Label="br_jet_pt[1]" Title="br_jet_pt[1]" Unit="" Internal="br_jet_pt_1_" Type="F" Min="2.57158527e+01" Max="5.57945068e+02"/>
    <Variable VarIndex="5" Expression="br_jet_pt[2]" Label="br_jet_pt[2]" Title="br_jet_pt[2]" Unit="" Internal="br_jet_pt_2_" Type="F" Min="2.28007431e+01" Max="5.18234802e+02"/>
    <Variable VarIndex="6" Expression="br_jet_pt[3]" Label="br_jet_pt[3]" Title="br_jet_pt[3]" Unit="" Internal="br_jet_pt_3_" Type="F" Min="2.21768017e+01" Max="2.43921509e+02"/>
    <Variable VarIndex="7" Expression="br_Fox_Wolfram[0]" Label="br_Fox_Wolfram[0]" Title="br_Fox_Wolfram[0]" Unit="" Internal="br_Fox_Wolfram_0_" Type="F" Min="1.57439971e+04" Max="2.74526200e+07"/>
    <Variable VarIndex="8" Expression="br_Fox_Wolfram[1]" Label="br_Fox_Wolfram[1]" Title="br_Fox_Wolfram[1]" Unit="" Internal="br_Fox_Wolfram_1_" Type="F" Min="5.12534424e+03" Max="1.70380680e+07"/>
    <Variable VarIndex="9" Expression="br_Fox_Wolfram[2]" Label="br_Fox_Wolfram[2]" Title="br_Fox_Wolfram[2]" Unit="" Internal="br_Fox_Wolfram_2_" Type="F" Min="5.20024609e+03" Max="2.34188820e+07"/>
    <Variable VarIndex="10" Expression="br_Fox_Wolfram[3]" Label="br_Fox_Wolfram[3]" Title="br_Fox_Wolfram[3]" Unit="" Internal="br_Fox_Wolfram_3_" Type="F" Min="4.93079150e+03" Max="2.04456400e+07"/>
    <Variable VarIndex="11" Expression="br_MET" Label="br_MET" Title="br_MET" Unit="" Internal="br_MET" Type="F" Min="1.57528758e+00" Max="4.53538422e+02"/>
    <Variable VarIndex="12" Expression="br_MET_Phi" Label="br_MET_Phi" Title="br_MET_Phi" Unit="" Internal="br_MET_Phi" Type="F" Min="-3.14139318e+00" Max="3.14115810e+00"/>
    <Variable VarIndex="13" Expression="br_nleptons" Label="br_nleptons" Title="br_nleptons" Unit="" Internal="br_nleptons" Type="F" Min="1.00000000e+00" Max="3.00000000e+00"/>
    <Variable VarIndex="14" Expression="br_nbjets" Label="br_nbjets" Title="br_nbjets" Unit="" Internal="br_nbjets" Type="F" Min="2.00000000e+00" Max="5.00000000e+00"/>
  </Variables>
  <Spectators NSpec="0"/>
  <Classes NClass="2">
    <Class Name="Signal" Index="0"/>
    <Class Name="Background" Index="1"/>
  </Classes>
  <Transformations NTransformations="1">
    <Transform Name="Normalize">
      <Selection>
        <Input NInputs="15">
          <Input Type="Variable" Label="br_njets" Expression="br_njets"/>
          <Input Type="Variable" Label="br_scalar_HT" Expression="br_scalar_HT"/>
          <Input Type="Variable" Label="br_sphericity" Expression="br_sphericity"/>
          <Input Type="Variable" Label="br_jet_pt[0]" Expression="br_jet_pt[0]"/>
          <Input Type="Variable" Label="br_jet_pt[1]" Expression="br_jet_pt[1]"/>
          <Input Type="Variable" Label="br_jet_pt[2]" Expression="br_jet_pt[2]"/>
          <Input Type="Variable" Label="br_jet_pt[3]" Expression="br_jet_pt[3]"/>
          <Input Type="Variable" Label="br_Fox_Wolfram[0]" Expression="br_Fox_Wolfram[0]"/>
          <Input Type="Variable" Label="br_Fox_Wolfram[1]" Expression="br_Fox_Wolfram[1]"/>
          <Input Type="Variable" Label="br_Fox_Wolfram[2]" Expression="br_Fox_Wolfram[2]"/>
          <Input Type="Variable" Label="br_Fox_Wolfram[3]" Expression="br_Fox_Wolfram[3]"/>
          <Input Type="Variable" Label="br_MET" Expression="br_MET"/>
          <Input Type="Variable" Label="br_MET_Phi" Expression="br_MET_Phi"/>
          <Input Type="Variable" Label="br_nleptons" Expression="br_nleptons"/>
          <Input Type="Variable" Label="br_nbjets" Expression="br_nbjets"/>
        </Input>
        <Output NOutputs="15">
          <Output Type="Variable" Label="br_njets" Expression="br_njets"/>
          <Output Type="Variable" Label="br_scalar_HT" Expression="br_scalar_HT"/>
          <Output Type="Variable" Label="br_sphericity" Expression="br_sphericity"/>
          <Output Type="Variable" Label="br_jet_pt[0]" Expression="br_jet_pt[0]"/>
          <Output Type="Variable" Label="br_jet_pt[1]" Expression="br_jet_pt[1]"/>
          <Output Type="Variable" Label="br_jet_pt[2]" Expression="br_jet_pt[2]"/>
          <Output Type="Variable" Label="br_jet_pt[3]" Expression="br_jet_pt[3]"/>
          <Output Type="Variable" Label="br_Fox_Wolfram[0]" Expression="br_Fox_Wolfram[0]"/>
          <Output Type="Variable" Label="br_Fox_Wolfram[1]" Expression="br_Fox_Wolfram[1]"/>
          <Output Type="Variable" Label="br_Fox_Wolfram[2]" Expression="br_Fox_Wolfram[2]"/>
          <Output Type="Variable" Label="br_Fox_Wolfram[3]" Expression="br_Fox_Wolfram[3]"/>
          <Output Type="Variable" Label="br_MET" Expression="br_MET"/>
          <Output Type="Variable" Label="br_MET_Phi" Expression="br_MET_Phi"/>
          <Output Type="Variable" Label="br_nleptons" Expression="br_nleptons"/>
          <Output Type="Variable" Label="br_nbjets" Expression="br_nbjets"/>
        </Output>
      </Selection>
      <Class ClassIndex="0">
        <Ranges>
          <Range Index="0" Min="4.0000000000000000e+00" Max="1.2000000000000000e+01"/>
          <Range Index="1" Min="1.3726286315917969e+02" Max="2.0470737304687500e+03"/>
          <Range Index="2" Min="2.3579716216772795e-03" Max="8.9096790552139282e-01"/>
          <Range Index="3" Min="3.2857131958007812e+01" Max="6.9618029785156250e+02"/>
          <Range Index="4" Min="2.5715852737426758e+01" Max="5.5794506835937500e+02"/>
          <Range Index="5" Min="2.2800743103027344e+01" Max="5.1823480224609375e+02"/>
          <Range Index="6" Min="2.2176801681518555e+01" Max="2.4392150878906250e+02"/>
          <Range Index="7" Min="1.5743997070312500e+04" Max="2.7452620000000000e+07"/>
          <Range Index="8" Min="5.1253442382812500e+03" Max="1.7038068000000000e+07"/>
          <Range Index="9" Min="5.2002460937500000e+03" Max="2.3418882000000000e+07"/>
          <Range Index="10" Min="4.9307915039062500e+03" Max="2.0445640000000000e+07"/>
          <Range Index="11" Min="1.5752875804901123e+00" Max="4.5353842163085938e+02"/>
          <Range Index="12" Min="-3.1413931846618652e+00" Max="3.1411581039428711e+00"/>
          <Range Index="13" Min="1.0000000000000000e+00" Max="3.0000000000000000e+00"/>
          <Range Index="14" Min="2.0000000000000000e+00" Max="5.0000000000000000e+00"/>
        </Ranges>
      </Class>
      <Class ClassIndex="1">
        <Ranges>
          <Range Index="0" Min="4.0000000000000000e+00" Max="8.0000000000000000e+00"/>
          <Range Index="1" Min="6.4992340087890625e+02" Max="1.0828859863281250e+03"/>
          <Range Index="2" Min="2.6081077754497528e-02" Max="6.0047465562820435e-01"/>
          <Range Index="3" Min="2.5556831359863281e+02" Max="3.5351641845703125e+02"/>
          <Range Index="4" Min="1.0667906188964844e+02" Max="2.6617684936523438e+02"/>
          <Range Index="5" Min="4.6674884796142578e+01" Max="1.5404435729980469e+02"/>
          <Range Index="6" Min="2.2909584045410156e+01" Max="1.4802919006347656e+02"/>
          <Range Index="7" Min="3.9140715625000000e+05" Max="8.8457970000000000e+06"/>
          <Range Index="8" Min="1.1225519531250000e+05" Max="8.1808385000000000e+06"/>
          <Range Index="9" Min="2.3707634375000000e+05" Max="7.2121070000000000e+06"/>
          <Range Index="10" Min="1.2846914062500000e+05" Max="6.2336645000000000e+06"/>
          <Range Index="11" Min="7.5499629974365234e+00" Max="4.0932479858398438e+01"/>
          <Range Index="12" Min="-3.0492258071899414e+00" Max="3.1337456703186035e+00"/>
          <Range Index="13" Min="1.0000000000000000e+00" Max="1.0000000000000000e+00"/>
          <Range Index="14" Min="2.0000000000000000e+00" Max="2.0000000000000000e+00"/>
        </Ranges>
      </Class>
      <Class ClassIndex="2">
        <Ranges>
          <Range Index="0" Min="4.0000000000000000e+00" Max="1.2000000000000000e+01"/>
          <Range Index="1" Min="1.3726286315917969e+02" Max="2.0470737304687500e+03"/>
          <Range Index="2" Min="2.3579716216772795e-03" Max="8.9096790552139282e-01"/>
          <Range Index="3" Min="3.2857131958007812e+01" Max="6.9618029785156250e+02"/>
          <Range Index="4" Min="2.5715852737426758e+01" Max="5.5794506835937500e+02"/>
          <Range Index="5" Min="2.2800743103027344e+01" Max="5.1823480224609375e+02"/>
          <Range Index="6" Min="2.2176801681518555e+01" Max="2.4392150878906250e+02"/>
          <Range Index="7" Min="1.5743997070312500e+04" Max="2.7452620000000000e+07"/>
          <Range Index="8" Min="5.1253442382812500e+03" Max="1.7038068000000000e+07"/>
          <Range Index="9" Min="5.2002460937500000e+03" Max="2.3418882000000000e+07"/>
          <Range Index="10" Min="4.9307915039062500e+03" Max="2.0445640000000000e+07"/>
          <Range Index="11" Min="1.5752875804901123e+00" Max="4.5353842163085938e+02"/>
          <Range Index="12" Min="-3.1413931846618652e+00" Max="3.1411581039428711e+00"/>
          <Range Index="13" Min="1.0000000000000000e+00" Max="3.0000000000000000e+00"/>
          <Range Index="14" Min="2.0000000000000000e+00" Max="5.0000000000000000e+00"/>
        </Ranges>
      </Class>
    </Transform>
  </Transformations>
  <MVAPdfs/>
  <Weights InputWidth="15" Depth="4" LossFunction="C" OutputFunction="S">
    <Layer ActivationFunction="3">
      <Weights rows="128" cols="15">
        5.5898889899253845e-02 5.7673208415508270e-02 2.5218400359153748e-01 2.3172214627265930e-01 6.3745640218257904e-02 -6.7066706717014313e-02 -2.2590991854667664e-01 1.3088281452655792e-01 -2.8974130749702454e-01 -3.4074023365974426e-01 -1.8713977932929993e-01 7.9572819173336029e-02 1.4326694607734680e-01 -2.9894867539405823e-01 1.6901660710573196e-02 -3.1268465518951416e-01 1.0963997989892960e-01 -6.2716417014598846e-02 4.0300719439983368e-02 -7.0919655263423920e-02 3.3063229173421860e-02 4.8774428665637970e-02 -1.3811829686164856e-01 1.3703025877475739e-01 -2.5370463728904724e-01 -2.9940682649612427e-01 3.2719838619232178e-01 2.2309605777263641e-01 -2.4978849291801453e-01 3.1332173943519592e-01 -1.5037731826305389e-01 3.2632607966661453e-02 -2.9328772425651550e-01 -1.7307208478450775e-01 -2.5846406817436218e-01 -2.5422978401184082e-01 -2.8520345687866211e-01 2.7869236469268799e-01 3.1904566287994385e-01 3.1012624502182007e-01 -2.0847751200199127e-01 -2.5136715173721313e-01 1.2672275304794312e-01 -1.5536747872829437e-01 1.9016021490097046e-01 1.3125121593475342e-01 -2.2959266602993011e-01 3.2831810414791107e-02 -2.3162212967872620e-01 2.3072671890258789e-01 2.3880772292613983e-01 -3.5619252920150757e-01 -2.2696899250149727e-02 -1.4061844348907471e-01 1.5571125783026218e-02 -2.2583110630512238e-01 1.4618681371212006e-01 -2.1352577954530716e-02 -2.5636750459671021e-01 2.8757718205451965e-01 -2.1645444631576538e-01 3.1211909651756287e-01 1.3424724340438843e-01 -1.9224625825881958e-01 2.2968636453151703e-01 -5.8649092912673950e-02 -2.9154002666473389e-01 2.1886211633682251e-01 -1.7015203833580017e-01 1.6429670155048370e-02 1.9764898717403412e-01 -3.3138506114482880e-02 1.2599293887615204e-01 2.9980492591857910e-01 -3.5000719130039215e-02 2.4328620731830597e-01 3.8873679935932159e-02 2.9120284318923950e-01 -2.2214918863028288e-03 -2.1204885840415955e-01 -2.1825832128524780e-01 2.9224032163619995e-01 1.3273857533931732e-01 1.4214701950550079e-01 -2.2946842014789581e-01 -1.2446661293506622e-01 1.0247153043746948e-01 7.3657050728797913e-02 3.1425082683563232e-01 3.9165485650300980e-02 -1.4702535234391689e-02 3.1809645891189575e-01 2.8632274270057678e-01 -8.4095031023025513e-02 -5.5889669805765152e-02 -1.1074812710285187e-01 -8.6624331772327423e-02 -1.3027162849903107e-01 2.4012146890163422e-01 -3.2620247453451157e-02 -2.5976988673210144e-01 -2.1099840104579926e-01 -1.5298056602478027e-01 -6.2515676021575928e-02 -1.8130019307136536e-01 2.1276947855949402e-01 3.1687185168266296e-01 1.9617097079753876e-01 1.5760418027639389e-02 1.7904970049858093e-01 1.3791954517364502e-01 -1.8810962140560150e-01 1.4285974204540253e-01 -1.2415717542171478e-01 1.9374182820320129e-01 2.9217746853828430e-01 6.2629714608192444e-02 3.5767212510108948e-02 6.8994715809822083e-02 -9.9130325019359589e-02 4.3960969895124435e-02 2.8081291913986206e-01 3.8904998451471329e-02 1.7075341939926147e-01 2.7616184949874878e-01 1.1827442795038223e-02 1.1309167603030801e-03 -3.6798413842916489e-02 4.2977433651685715e-02 1.7011693120002747e-01 -4.2309660464525223e-02 -3.1811493635177612e-01 1.7694702744483948e-01 1.5889628231525421e-01 -2.1059933304786682e-01 -1.4027789235115051e-01 2.8562617301940918e-01 7.7949978411197662e-02 2.8645348548889160e-01 4.3662175536155701e-02 2.0261816680431366e-01 1.7876507341861725e-01 -9.5815241336822510e-02 -1.2528994679450989e-01 1.8740661442279816e-02 7.7722603455185890e-03 -2.9027724266052246e-01 -5.8732427656650543e-02 -2.8072369098663330e-01 2.4304391443729401e-01 2.2690533101558685e-01 -3.3616524934768677e-01 -4.9921523779630661e-02 -1.2519687414169312e-01 1.8952377140522003e-01 5.3805742412805557e-02 2.1305625140666962e-01 8.0683559179306030e-02 -1.4947830140590668e-01 4.7481678426265717e-02 -4.5465994626283646e-02 -3.1019473075866699e-01 9.4193018972873688e-02 1.6924011707305908e-01 1.9005450606346130e-01 -2.4814695119857788e-01 5.0557952374219894e-02 2.5402296334505081e-02 7.2266191244125366e-02 6.3030724413692951e-03 -1.2749211490154266e-01 2.7221265435218811e-01 -1.9149580597877502e-01 -2.1998566389083862e-01 -1.2533490359783173e-01 -1.7964126169681549e-01 -3.3795344829559326e-01 1.9788242876529694e-01 2.6718097925186157e-01 5.4731644690036774e-02 -3.1051200628280640e-01 -3.1370475888252258e-02 2.6999849826097488e-02 3.7223313003778458e-02 -7.8724794089794159e-02 2.1070794761180878e-01 1.2629583477973938e-01 -2.7530634403228760e-01 -1.0161174088716507e-01 -8.7759591639041901e-02 1.5455141663551331e-01 7.1617856621742249e-02 3.2308104634284973e-01 -2.5939884781837463e-01 -1.3434642553329468e-01 -1.9642549753189087e-01 2.7780580520629883e-01 1.5316747128963470e-01 -1.0359633713960648e-01 -5.8030694723129272e-02 4.6869288198649883e-03 -3.0016720294952393e-01 7.9917967319488525e-02 -1.1661706864833832e-01 2.2388553619384766e-01 1.4346927404403687e-01 -1.5819685161113739e-01 -3.1274148821830750e-01 2.8115656971931458e-01 -1.3142195343971252e-01 -8.5152070969343185e-03 -2.2069033980369568e-01 1.0428670048713684e-01 -1.4293295145034790e-01 2.7199897170066833e-01 2.9001453518867493e-01 -2.0145067572593689e-01 1.2677793204784393e-01 1.7004208266735077e-01 2.7287209033966064e-01 -2.0163148641586304e-02 -9.3559607863426208e-02 6.4792826771736145e-02 -1.2376591563224792e-01 -4.0071409195661545e-02 3.1799492239952087e-01 1.5386246144771576e-01 -7.6294750906527042e-03 -1.2217580527067184e-01 -1.7386649549007416e-01 -3.7950899451971054e-02 2.0598968863487244e-01 1.3650059700012207e-01 -6.3225082121789455e-03 -4.5357335358858109e-02 -2.2750484943389893e-01 2.3524759709835052e-01 -1.6743852198123932e-01 -2.2994162142276764e-01 -2.7784940600395203e-01 5.0737310200929642e-02 -1.6810216009616852e-01 1.6394698619842529e-01 2.9338963795453310e-03 9.0362407267093658e-02 2.0253728143870831e-03 -1.4686736464500427e-01 2.8184205293655396e-01 -2.2444787621498108e-01 2.9308372735977173e-01 2.8767159581184387e-01 -1.9568760693073273e-01 -6.7023716866970062e-02 2.5898528099060059e-01 -9.6781283617019653e-02 -1.5331737697124481e-01 -1.8479718267917633e-01 -1.5234670042991638e-01 -2.4319185316562653e-01 -5.8158498257398605e-02 2.4586875736713409e-01 2.1747251972556114e-02 6.5498642623424530e-02 -2.2192510962486267e-01 2.1015012264251709e-01 2.7170222997665405e-01 -1.7626175284385681e-01 -2.9945988208055496e-02 3.3647067844867706e-02 2.7207991480827332e-01 -2.9855278134346008e-01 2.6806855201721191e-01 2.2455607354640961e-01 1.3386641629040241e-02 -1.8308402597904205e-01 1.7377085983753204e-01 -2.6603871583938599e-01 2.6360937952995300e-01 -2.1226858720183372e-02 -4.3699268251657486e-02 1.6700191795825958e-01 -1.4123494923114777e-01 2.1421782672405243e-01 -3.4458038210868835e-01 -3.3908665180206299e-02 -6.8079255521297455e-02 -1.1469776928424835e-01 4.3918773531913757e-02 -2.0805276930332184e-01 -2.6069006323814392e-01 -1.1387673765420914e-01 1.1429694294929504e-01 -1.4262945950031281e-01 -3.7115868180990219e-02 -1.4453204348683357e-02 3.0305367708206177e-01 5.0735831260681152e-02 1.4824490249156952e-01 -1.8251274526119232e-01 -2.0190823078155518e-01 5.3529117256402969e-02 -3.1087872385978699e-01 2.2964037954807281e-01 -1.4006106555461884e-01 -2.6533067226409912e-01 6.1670128256082535e-02 -9.0981490910053253e-02 -1.4514033682644367e-02 -4.4029869139194489e-02 2.6584997773170471e-02 -2.6541763544082642e-01 1.0546480864286423e-01 1.9102171063423157e-01 -1.1450102180242538e-01 -1.3244338333606720e-01 1.0620537400245667e-01 7.9067662358283997e-02 -1.6632539033889771e-01 5.0823446363210678e-02 1.0016974061727524e-01 7.7906988561153412e-02 -2.3004664108157158e-02 1.2498246878385544e-01 -9.2528417706489563e-02 3.0825570225715637e-01 -2.3717558383941650e-01 2.4503135681152344e-01 8.6575346067547798e-03 -2.5354278087615967e-01 1.6682507097721100e-01 -2.9602295160293579e-01 2.5571111589670181e-02 -1.1984647065401077e-01 5.1625568419694901e-02 -2.2768165171146393e-01 -2.7434129733592272e-03 2.1020770072937012e-02 -8.9472666382789612e-02 -2.7742069959640503e-01 -3.3759850263595581e-01 1.5480062365531921e-01 -7.2120629251003265e-02 1.9350659847259521e-01 2.6987597346305847e-01 -9.9854454398155212e-02 1.2255473434925079e-01 -1.9383057951927185e-01 1.3354234397411346e-01 -1.8771667033433914e-02 -2.1442048251628876e-01 -1.0598935186862946e-01 -2.0896208286285400e-01 7.0339322090148926e-02 2.5520086288452148e-01 -1.8116487562656403e-01 -1.6779279708862305e-01 3.8596760481595993e-02 3.2088324427604675e-01 -5.4133266210556030e-02 -1.9215563312172890e-02 2.2288095951080322e-01 -2.9244011640548706e-01 2.4897326529026031e-01 5.4738774895668030e-02 -2.3410739004611969e-01 1.5939937531948090e-01 -3.1947749853134155e-01 1.4107096195220947e-01 -1.1043062806129456e-01 2.3747242987155914e-01 2.9117986559867859e-01 2.3526628315448761e-01 2.7296647429466248e-01 -1.5540984272956848e-01 -1.3946840167045593e-01 -4.5335594564676285e-02 -1.6317193210124969e-01 -1.5640601515769958e-01 1.4056116342544556e-01 -1.9336941838264465e-01 -2.9796692728996277e-01 -2.2817961871623993e-02 -1.9704622030258179e-01 1.5062087215483189e-02 -2.2768025100231171e-01 2.6764416694641113e-01 -7.2392769157886505e-02 9.1497432440519333e-03 2.3643486201763153e-01 -1.8254800140857697e-01 1.3468609750270844e-01 -9.0809978544712067e-02 -1.2210276722908020e-01 -1.3397371768951416e-01 1.0700692236423492e-01 2.7143195271492004e-01 7.9718783497810364e-02 -2.3456364870071411e-01 2.3536707460880280e-01 -1.1000455170869827e-01 -1.1007254011929035e-02 -3.0206012725830078e-01 1.5926447510719299e-01 -6.5459579229354858e-02 -2.9805532097816467e-01 -9.9342931061983109e-03 1.2762287259101868e-01 1.6039931774139404e-01 1.5229426324367523e-01 5.9448100626468658e-02 -2.4110238254070282e-01 -2.4659118056297302e-01 -4.7126477584242821e-03 2.7722600102424622e-01 2.3907230794429779e-01 2.7423077821731567e-01 -8.3468658849596977e-03 -2.0939445495605469e-01 2.2440139204263687e-02 4.2932689189910889e-02 -1.2675698101520538e-01 -3.2114198803901672e-01 3.0745932459831238e-01 -2.8960954397916794e-02 2.2827599942684174e-01 -2.3535159230232239e-01 1.8319995701313019e-01 -3.2650284469127655e-02 -3.6713439971208572e-02 1.3813729584217072e-01 3.5464264452457428e-02 -1.6484932601451874e-01 2.7266234159469604e-01 3.5405341535806656e-02 -6.4717799425125122e-02 2.4048863351345062e-01 2.2012665867805481e-01 2.4198422208428383e-02 -1.4103400707244873e-01 1.4343824982643127e-01 -2.1659111976623535e-01 -2.4505263566970825e-01 2.1999542415142059e-01 -1.4902955293655396e-01 3.3937749266624451e-01 7.4265599250793457e-02 8.5620217025279999e-02 -8.9734695851802826e-02 2.7620726823806763e-01 1.6133818030357361e-01 1.9651190936565399e-01 -3.1275692582130432e-01 -1.0192377865314484e-01 3.5042704548686743e-03 4.5668914914131165e-02 -8.6534805595874786e-02 1.9539733231067657e-01 2.2186765074729919e-01 2.5243142247200012e-01 -3.0053278431296349e-02 -5.3951527923345566e-02 2.6381692290306091e-01 1.0594584047794342e-01 2.0989418029785156e-02 4.9148080870509148e-03 -1.8290752172470093e-01 -5.7189397513866425e-02 -1.4073087833821774e-02 2.1625894308090210e-01 -1.9669109582901001e-01 2.9937925934791565e-01 1.2735539674758911e-01 2.2608578205108643e-02 -2.2072617709636688e-01 2.6375353336334229e-01 2.7677662670612335e-02 2.3068377375602722e-01 3.8100123405456543e-02 -2.8526651859283447e-01 1.6663232445716858e-01 2.6882237195968628e-01 5.1268391311168671e-02 -1.5349003672599792e-01 -9.6538200974464417e-02 1.8819853663444519e-01 1.2270115315914154e-01 -8.1863664090633392e-02 -2.1978046000003815e-01 -6.6535219550132751e-02 2.1637859940528870e-01 2.1857546269893646e-01 2.6804521679878235e-01 -1.2893284857273102e-01 2.4461527168750763e-01 -9.8967794328927994e-03 -1.1371819674968719e-01 4.2304988950490952e-02 5.0933714956045151e-02 -1.3479234278202057e-01 2.9336076974868774e-01 -4.6011935919523239e-02 3.2313865423202515e-01 1.9440820813179016e-01 2.9899024963378906e-01 3.4853846300393343e-03 -3.1589058041572571e-01 -3.1200104951858521e-01 2.7019584178924561e-01 2.2558377683162689e-01 2.4545994400978088e-01 2.9149734973907471e-01 1.0378547757863998e-01 -2.0888933539390564e-01 1.9818243384361267e-01 9.0467520058155060e-02 -9.6894338726997375e-02 -4.4335123151540756e-02 -8.2164853811264038e-02 1.7837131023406982e-01 1.9165040925145149e-02 3.1621056795120239e-01 3.5198114346712828e-03 -2.2099858522415161e-01 8.8797681033611298e-02 -5.5175788700580597e-02 -2.1996544301509857e-01 1.6465908288955688e-01 -1.4751875400543213e-01 3.4411504864692688e-01 -1.7725457251071930e-01 3.4311988949775696e-01 -2.0912429690361023e-01 -8.6598293855786324e-03 -2.4287511408329010e-01 -1.8733626604080200e-01 1.3746024668216705e-01 2.7456641197204590e-01 -1.6379499435424805e-01 6.9623504532501101e-04 -3.5770442336797714e-02 1.0744511336088181e-01 1.2882943451404572e-01 2.5845423340797424e-01 1.7853632569313049e-01 2.1494571864604950e-01 -1.9743916392326355e-01 2.0061415433883667e-01 -9.8434858024120331e-02 -4.5168947428464890e-02 1.0840298980474472e-01 8.2188537344336510e-03 1.7362309992313385e-01 5.8758523315191269e-02 1.3106894493103027e-01 2.6357421278953552e-01 9.9311890080571175e-03 2.0763385295867920e-01 -2.9388195276260376e-01 3.2919485121965408e-02 -1.5255734324455261e-01 -4.3710023164749146e-02 1.4714317023754120e-01 9.0110756456851959e-02 -1.5132787823677063e-01 -2.8735256195068359e-01 -7.8763820230960846e-02 -2.2105984389781952e-02 2.6634780690073967e-02 -2.0166042447090149e-01 3.3648461103439331e-02 1.5048484504222870e-01 2.5979879498481750e-01 1.4835840463638306e-01 6.7002564668655396e-02 -1.6205865144729614e-01 3.6948148161172867e-02 1.3093800842761993e-01 1.9841305911540985e-01 1.9988791644573212e-01 -2.5510597229003906e-01 1.3672289252281189e-01 -8.1759309396147728e-03 -2.5346875190734863e-01 -1.0253670811653137e-01 -2.1770110726356506e-01 -1.8094922602176666e-01 -1.4678986370563507e-01 -5.3088445216417313e-02 1.1326157301664352e-01 -1.0050565004348755e-01 3.3011797815561295e-02 -3.4564721584320068e-01 7.7335484325885773e-02 1.5438221395015717e-01 -1.7353038489818573e-01 2.6039162278175354e-01 -2.4638429284095764e-01 -9.9968686699867249e-02 2.7532890439033508e-01 -3.2825985550880432e-01 -6.5896309912204742e-02 -4.1397325694561005e-02 1.8659880757331848e-01 2.2597016394138336e-01 2.1615257859230042e-01 -3.2757822424173355e-02 1.2302035465836525e-02 -3.6590587347745895e-02 3.0225208401679993e-01 2.7926990389823914e-01 -2.4055297672748566e-01 -2.6809683442115784e-01 1.3131326436996460e-01 -2.3855675756931305e-01 1.7743891477584839e-01 -1.3890975713729858e-01 -2.4197033047676086e-01 -9.2194698750972748e-02 -2.7155146002769470e-01 -1.0582918673753738e-01 -5.1266256719827652e-02 3.0205270648002625e-01 1.6763640940189362e-01 1.6734589636325836e-01 -2.2279039025306702e-01 2.7753102779388428e-01 -6.9779276847839355e-02 -5.6337541900575161e-03 2.0435334742069244e-01 5.1735393702983856e-02 -2.2435869276523590e-01 2.3079425096511841e-01 -2.3643819987773895e-01 1.0964320600032806e-01 4.9686755985021591e-02 1.9039754569530487e-01 -2.1920923888683319e-01 2.3323115706443787e-01 2.2229708731174469e-01 9.6794769167900085e-02 5.6077274493873119e-03 2.0392204821109772e-01 -1.1215235292911530e-01 -2.1116785705089569e-01 -2.1266742050647736e-01 -1.8120955675840378e-02 1.5717560052871704e-01 3.0220788717269897e-01 1.0883742570877075e-01 -6.4496956765651703e-02 -4.8302996903657913e-02 -1.2648750841617584e-01 2.6912060379981995e-01 1.5404179692268372e-01 7.7631011605262756e-02 -3.5081449151039124e-01 -1.2039465457201004e-01 2.6817935705184937e-01 -2.6367393136024475e-01 -2.9760558158159256e-02 -2.3752714693546295e-01 6.0833539813756943e-02 -2.3247921466827393e-01 1.8915234506130219e-01 8.0281838774681091e-02 -1.7852561175823212e-01 -1.6003474593162537e-01 2.4986757338047028e-01 1.2141019850969315e-01 -2.2171215713024139e-01 2.1083064377307892e-01 1.0237386077642441e-01 -1.3905096799135208e-02 -4.4906836003065109e-02 2.2425198554992676e-01 -8.7673999369144440e-02 -2.5281834602355957e-01 2.7051663398742676e-01 -2.7020421624183655e-01 2.2804424166679382e-01 8.8971972465515137e-02 -6.7061893641948700e-02 1.4936196804046631e-01 2.9863008856773376e-01 -7.0842221379280090e-02 1.8668702244758606e-01 2.1283541619777679e-01 -2.3469361662864685e-01 1.7490357160568237e-02 3.4293338656425476e-01 1.1466357111930847e-01 -3.0746212601661682e-01 8.3195222541689873e-03 -2.2115857899188995e-01 -1.1560253053903580e-01 1.1271308362483978e-01 -1.0591556876897812e-01 -1.8373522162437439e-01 1.0598535835742950e-01 -4.1858378797769547e-02 -1.1138129979372025e-01 2.1657837927341461e-01 -8.0625951290130615e-02 -2.3244035243988037e-01 -2.1191999316215515e-01 -1.7984542250633240e-01 -2.6424100995063782e-01 -7.4244916439056396e-02 -8.1271126866340637e-02 1.6579990088939667e-01 -1.2818066775798798e-01 2.8145563602447510e-01 -2.9499417543411255e-01 2.3135352879762650e-02 -8.9412257075309753e-02 1.7049264907836914e-01 9.8740063607692719e-02 -2.8967961668968201e-01 -8.3783313632011414e-02 -3.5297177731990814e-02 9.1926105320453644e-02 -2.2101484239101410e-01 -3.0415761470794678e-01 -2.0579041913151741e-02 3.2377710938453674e-01 2.0417360961437225e-01 1.3330020010471344e-01 2.5833794474601746e-01 2.5955578684806824e-01 -9.7962677478790283e-02 -1.9826754927635193e-01 -2.8004956245422363e-01 3.2035547494888306e-01 -4.3268930166959763e-02 -7.9797081649303436e-02 6.6604353487491608e-02 -1.0770078003406525e-01 -1.5476937592029572e-01 -1.5860293805599213e-01 -1.9247838854789734e-01 2.3446486890316010e-01 -1.1015515774488449e-01 -2.2255554795265198e-02 -7.8142337501049042e-02 -7.5142696499824524e-02 -2.2803106904029846e-01 1.0104008018970490e-01 -1.3709127902984619e-01 -1.9990997016429901e-01 1.8616382777690887e-01 3.1056037545204163e-01 -2.0739689469337463e-01 6.4872172661125660e-03 -2.6323512196540833e-01 2.7394896745681763e-01 -1.3889448344707489e-01 1.7290991544723511e-01 -4.0249530225992203e-02 1.7393928766250610e-01 -1.2012147903442383e-01 3.0095481872558594e-01 -2.0854464173316956e-01 -1.9715161621570587e-01 2.5764557719230652e-01 1.1690087616443634e-01 6.5578408539295197e-02 -1.5839709341526031e-01 -1.4460964500904083e-01 -1.8748204410076141e-01 -1.4901430346071720e-02 1.1543530225753784e-01 6.2831662595272064e-02 -1.3489733636379242e-01 4.0118765085935593e-02 4.7694049775600433e-02 4.5671645784750581e-04 4.7502117231488228e-03 6.7681565880775452e-02 -2.7848593890666962e-02 -2.5801870226860046e-01 2.2282978892326355e-01 -1.9683922827243805e-01 -1.6843901574611664e-01 2.2792464494705200e-01 -6.1591777950525284e-02 -2.4795320630073547e-01 -1.6425289213657379e-01 2.5029242038726807e-02 8.9636616408824921e-02 5.2196336910128593e-03 -8.5580289363861084e-02 1.7572943866252899e-01 -2.4835465848445892e-01 1.5336315333843231e-01 2.3869058489799500e-01 -4.5738749206066132e-02 -2.0776119828224182e-01 1.3971616327762604e-01 1.5894979238510132e-01 -2.1087156236171722e-01 1.2652969360351562e-01 2.8060767054557800e-01 1.8790599703788757e-01 -1.8983994424343109e-01 1.0252764075994492e-01 -3.0499672517180443e-02 -1.2778776884078979e-01 -2.9865924268960953e-02 2.3505108058452606e-01 -1.6395716369152069e-01 -1.8277217447757721e-01 -2.7859729528427124e-01 -2.8007882833480835e-01 -2.8600090742111206e-01 -3.0585616827011108e-01 -2.5172206759452820e-01 -4.2215131223201752e-02 -1.7236796021461487e-01 2.1517217159271240e-01 -1.3436868786811829e-01 1.7325651645660400e-01 6.7886151373386383e-02 2.6904043555259705e-01 9.7623258829116821e-02 -2.4471077322959900e-01 3.1527239084243774e-01 -1.1083956062793732e-01 9.6820950508117676e-02 3.0516046285629272e-01 -3.6466106772422791e-02 -9.8419912159442902e-02 6.9827973842620850e-02 -2.4624037742614746e-01 1.7607302963733673e-01 1.0230185091495514e-01 1.1971784383058548e-01 1.7722919583320618e-01 -2.0816709101200104e-01 -2.2859160602092743e-01 -2.5914722681045532e-01 -1.9905547797679901e-01 -1.4503268897533417e-01 1.4680337905883789e-01 3.8938481360673904e-02 -3.0398446321487427e-01 1.7943742871284485e-01 1.8855097889900208e-01 -2.9508262872695923e-01 -1.4592815935611725e-01 6.4700096845626831e-02 -1.6477584838867188e-01 -1.9433915615081787e-01 8.0298043787479401e-02 9.4731003046035767e-02 -9.7606703639030457e-02 -6.6280215978622437e-03 2.4438047409057617e-01 -2.4354080855846405e-01 3.0445834994316101e-01 -1.8970048427581787e-01 1.2160242348909378e-01 1.0078150779008865e-01 -2.7457952499389648e-01 1.6103786230087280e-01 -1.6057747602462769e-01 2.6804107427597046e-01 -2.3641084134578705e-01 2.7282813191413879e-01 -3.0357319116592407e-01 4.1146084666252136e-02 2.8516823053359985e-01 9.1080158948898315e-02 -2.0553706586360931e-01 -3.4226413816213608e-02 -1.1005790904164314e-02 -1.8165555596351624e-01 2.3779810965061188e-01 1.9849649071693420e-01 -1.3606145046651363e-02 1.4604292809963226e-01 3.8552410900592804e-02 -2.3881158232688904e-01 6.9915719330310822e-02 -1.3779325783252716e-01 -2.6557071134448051e-02 -2.7883508801460266e-01 7.5908116996288300e-02 2.2962263226509094e-01 -9.3743763864040375e-03 1.8676742911338806e-01 6.4845114946365356e-02 -1.8392506241798401e-01 3.1444793939590454e-01 3.0850860476493835e-01 1.5676753222942352e-01 -8.4442675113677979e-02 -2.8103390336036682e-01 -3.0297157168388367e-01 -2.3530448973178864e-01 2.1930140256881714e-01 4.0136270225048065e-02 2.8637486696243286e-01 1.5826685726642609e-01 -2.6805526018142700e-01 1.3847942650318146e-01 -8.8156081736087799e-02 -2.5358241796493530e-01 -8.2708857953548431e-02 1.9643913209438324e-01 -3.1142455339431763e-01 1.9745229184627533e-01 -1.5388246625661850e-02 -2.5056105852127075e-01 -1.4999663829803467e-01 6.8348184227943420e-02 2.1509267389774323e-01 2.5169211626052856e-01 1.4000140130519867e-01 -3.4268587827682495e-01 8.9304327964782715e-02 -2.8785920143127441e-01 -4.4777397066354752e-02 6.2288332730531693e-02 -1.7788012325763702e-01 2.5131994485855103e-01 -2.4754631519317627e-01 -5.6025288999080658e-02 -3.6245290189981461e-02 -2.7856184169650078e-02 -2.6377993822097778e-01 -8.3469133824110031e-03 2.6635751128196716e-01 -2.8253385424613953e-01 -2.3347124457359314e-01 1.4678798615932465e-01 -1.1557439714670181e-01 9.9427372217178345e-02 1.9435134530067444e-01 -9.2600867152214050e-02 -2.5909599661827087e-01 2.4392119050025940e-01 2.1872824430465698e-01 3.7135470658540726e-02 1.1717977374792099e-01 -3.2018849253654480e-01 1.3722480833530426e-01 -1.4675672352313995e-01 -3.1387612223625183e-01 2.0019297301769257e-01 2.6827737689018250e-01 8.5934385657310486e-02 1.9439454376697540e-01 -4.6656545251607895e-02 -2.3745518922805786e-01 -2.2927360236644745e-01 -2.0700806379318237e-01 5.1534283906221390e-02 -1.0714343748986721e-02 -3.1198775768280029e-01 -2.9318422079086304e-01 2.1161355078220367e-01 -3.1452813744544983e-01 -2.7819913625717163e-01 6.0524180531501770e-02 2.5210383534431458e-01 1.1703658103942871e-01 -1.1022388935089111e-01 2.9674181342124939e-01 2.7910140156745911e-01 -7.7669687569141388e-02 1.9731904566287994e-01 -7.4974395334720612e-02 -2.4919416010379791e-01 1.3375462591648102e-01 4.7613903880119324e-02 2.7021259069442749e-01 -9.7404038533568382e-03 -2.3748186230659485e-01 -1.9935788214206696e-01 2.4213288724422455e-01 1.7653337121009827e-01 -2.1574865095317364e-03 2.6875081658363342e-01 -2.9169604182243347e-01 -1.7250239849090576e-01 -7.7633231878280640e-02 9.0020038187503815e-03 2.1735630929470062e-01 -3.0037355422973633e-01 3.1074175238609314e-01 1.6799333691596985e-01 -1.0657448321580887e-01 1.1387025937438011e-02 3.3265894651412964e-01 -3.1484034657478333e-01 1.2933781743049622e-01 2.9027113318443298e-01 9.4454661011695862e-02 -2.7980688214302063e-01 3.9023518562316895e-02 1.6238303482532501e-01 1.1039808392524719e-02 1.2574405968189240e-01 2.7962082624435425e-01 3.0113390088081360e-01 2.1556408703327179e-01 -1.2615890800952911e-01 -2.7725926041603088e-01 1.5742640197277069e-01 -2.0309790968894958e-01 -2.9395246505737305e-01 -2.6199254393577576e-01 -1.7109845578670502e-01 -2.3867240175604820e-02 1.5229576826095581e-01 -2.8520771861076355e-01 2.0950667560100555e-01 1.8963073194026947e-01 9.8841726779937744e-02 3.2885310053825378e-01 4.4040609151124954e-02 3.3880427479743958e-02 -4.4816266745328903e-02 -1.6411966085433960e-01 2.5192493200302124e-01 5.8538686484098434e-02 3.1088894605636597e-01 -4.5962095260620117e-02 -2.7712127566337585e-01 -1.4170910418033600e-01 -2.2950695455074310e-01 -1.8647390604019165e-01 -3.0943828821182251e-01 3.0661144852638245e-01 1.1441761255264282e-01 -3.0273783206939697e-01 -3.0665895342826843e-01 -1.2040016055107117e-01 2.6674959063529968e-01 -1.0228206962347031e-01 -1.1052199453115463e-01 1.2270771712064743e-01 1.9182527065277100e-01 -2.2869116067886353e-01 -2.0210690796375275e-01 -5.8197297155857086e-02 -2.0919731259346008e-01 3.0304872989654541e-01 -3.1216117739677429e-01 -1.7854101955890656e-01 -4.4639058411121368e-02 -4.8276562243700027e-02 -2.1597318351268768e-01 -4.9808137118816376e-02 5.5808402597904205e-02 1.8062402307987213e-01 2.8624337911605835e-01 -2.1740642189979553e-01 2.6256391406059265e-01 -1.7527388036251068e-01 -2.3565731942653656e-01 2.9156771302223206e-01 1.1116765439510345e-01 -6.0999333858489990e-02 -2.6556810736656189e-01 2.1312242746353149e-01 2.2069942951202393e-01 9.3634754419326782e-02 -1.0528769344091415e-01 -1.6563741955906153e-03 -2.0554691553115845e-01 1.2364277243614197e-01 1.5039816498756409e-01 3.2836925983428955e-01 2.4556975066661835e-01 9.5085740089416504e-02 3.0660408735275269e-01 -2.0958939194679260e-01 -2.0433007180690765e-01 -3.7897679954767227e-02 2.1858112514019012e-01 2.0603524520993233e-02 -1.2662660330533981e-02 1.0055743902921677e-01 1.9173043966293335e-01 -1.4891359210014343e-01 3.4540560096502304e-02 1.9045701622962952e-01 -3.3906450867652893e-01 1.7585745081305504e-02 -3.2205048203468323e-01 2.7928862720727921e-02 -2.7848652005195618e-01 -3.2634666562080383e-01 1.1529083549976349e-01 -2.2800276055932045e-02 -2.4371224641799927e-01 1.0742430388927460e-01 1.2536558508872986e-01 6.0286700318101794e-05 -2.5002676248550415e-01 -2.0841094851493835e-01 4.0090002119541168e-02 1.3046520948410034e-01 2.1576648950576782e-01 2.9991975426673889e-01 2.3316748440265656e-01 -1.8605253100395203e-01 7.5744628906250000e-02 2.6529493927955627e-01 -2.7032518386840820e-01 -7.6526798307895660e-02 3.1241557002067566e-01 -8.8139630854129791e-02 3.2345584034919739e-01 1.2615779042243958e-01 -4.1538655757904053e-02 -1.0609655827283859e-01 6.6931113600730896e-02 1.4434023201465607e-01 3.5781376063823700e-02 -2.3393085598945618e-01 -7.6897159218788147e-02 -3.5339478403329849e-02 2.5675153732299805e-01 3.0154100060462952e-01 1.7520664632320404e-01 1.7716921865940094e-01 -2.4366186559200287e-01 6.2721520662307739e-02 -1.6505090892314911e-01 1.8060835078358650e-02 3.0564287304878235e-01 -6.1041701585054398e-02 1.8621385097503662e-01 2.9000860452651978e-01 -2.6153188943862915e-01 -2.7927744388580322e-01 -2.4194923043251038e-01 8.9983142912387848e-02 2.3444104194641113e-01 -1.2342865765094757e-01 1.9153308868408203e-01 -7.2326362133026123e-02 7.5058974325656891e-02 1.9417889416217804e-01 2.2121107578277588e-01 -2.6159375905990601e-01 -2.3020744323730469e-01 -9.2718318104743958e-02 -2.1920470893383026e-01 5.7016167789697647e-02 7.8264616429805756e-02 -1.0925485938787460e-01 -1.6654331982135773e-01 2.0596657693386078e-01 -2.7638459205627441e-01 1.1688996851444244e-01 1.7897726595401764e-01 -7.8025348484516144e-02 -1.7657674849033356e-01 2.0933750271797180e-01 -3.3996263146400452e-01 3.6809965968132019e-02 1.8591111898422241e-01 -3.8693159818649292e-02 1.1561577767133713e-01 -1.9627268612384796e-01 -1.2035439163446426e-01 1.6365440189838409e-01 -5.6136738508939743e-02 -2.2782076895236969e-01 5.2546743303537369e-02 -2.5244638323783875e-01 -2.3423327505588531e-01 1.8160048127174377e-01 2.6463782787322998e-01 -2.2158595919609070e-01 -2.1140168607234955e-01 6.9844767451286316e-02 1.7737880349159241e-01 -2.1405270695686340e-01 2.9724147915840149e-01 -9.8516084253787994e-03 5.9598796069622040e-02 -8.3829425275325775e-02 -2.8088384866714478e-01 -2.5174537301063538e-01 4.5316085219383240e-02 -1.7148181796073914e-01 1.0195504873991013e-01 1.0002049803733826e-01 1.1316927149891853e-02 -5.4549141786992550e-03 2.9214143753051758e-01 -1.8933887779712677e-01 -1.8052856624126434e-01 -2.0098100602626801e-01 3.5515978932380676e-02 2.9375973343849182e-01 1.4443556964397430e-01 4.0189564228057861e-02 3.0702817440032959e-01 2.9858839511871338e-01 2.7594190835952759e-01 -3.9428200572729111e-02 -1.7448607087135315e-01 1.9805657863616943e-01 2.2739797830581665e-01 -1.4392058551311493e-01 -2.8226542472839355e-01 1.6346542537212372e-01 -2.2312201559543610e-01 -7.0947721600532532e-02 -1.5460900962352753e-01 -1.0949845612049103e-01 -1.6333894431591034e-01 2.6890245079994202e-01 4.3978411704301834e-02 -1.8016774952411652e-01 -1.3557851314544678e-01 1.5466403961181641e-01 -1.1003996431827545e-01 1.2071502208709717e-01 -2.9418471455574036e-01 5.4249512031674385e-03 5.4702956229448318e-02 -2.7478992938995361e-01 2.9182663559913635e-01 -8.5108749568462372e-02 -3.1374940276145935e-01 2.7399927377700806e-01 2.4183832108974457e-01 3.7095234729349613e-03 -2.0655912160873413e-01 -1.6931274533271790e-01 -2.9681381583213806e-01 -5.8907601982355118e-02 -2.7652272582054138e-01 3.1642225384712219e-01 7.5799562036991119e-02 -3.0549168586730957e-01 1.0249994695186615e-01 6.9989196956157684e-02 -1.5392711758613586e-01 1.3158963620662689e-01 -7.7385783195495605e-02 -1.1853425949811935e-01 -5.4282478988170624e-02 -2.1354623138904572e-01 1.9659173488616943e-01 1.1136459559202194e-01 -2.8936237096786499e-01 -3.1087344884872437e-01 -1.1582997441291809e-01 1.0954256355762482e-01 -1.7944374680519104e-01 1.0825415700674057e-01 -3.2339537143707275e-01 -2.6327887177467346e-01 -3.0008104443550110e-01 -8.3318248391151428e-02 -1.8724204599857330e-01 2.6863634586334229e-01 -1.3305144011974335e-01 -1.5087474882602692e-01 -1.0760551691055298e-01 -2.7015784382820129e-01 1.9093976914882660e-01 2.3711952567100525e-01 1.4379252493381500e-01 -3.0797649174928665e-02 1.1712596565485001e-01 1.2508340179920197e-01 2.0148813724517822e-01 -3.4372363239526749e-02 5.5212661623954773e-02 -3.1186452507972717e-01 -3.3435121178627014e-01 -1.0305653512477875e-01 -2.7003591880202293e-02 -3.2362097501754761e-01 -1.8070749938488007e-01 2.9989343881607056e-01 -5.7851657271385193e-02 -3.7693060934543610e-02 -1.3988924026489258e-01 2.8894906863570213e-02 2.7794635295867920e-01 -3.3559030294418335e-01 -1.3603314757347107e-01 3.0662623047828674e-01 5.6827843189239502e-02 -8.7757468223571777e-02 2.1731071174144745e-01 -1.0498186200857162e-01 -2.3386374115943909e-01 2.3828533291816711e-01 -2.0301531255245209e-01 -1.9824221730232239e-01 2.9987853765487671e-01 6.3190013170242310e-02 -2.5739049911499023e-01 -1.9871568679809570e-01 -4.5183226466178894e-02 -1.6802494227886200e-01 1.6838411986827850e-01 1.0703946463763714e-02 -1.8709498643875122e-01 -1.4846456050872803e-01 -3.1641653180122375e-01 -4.2077425867319107e-02 1.9944895058870316e-02 1.0478720068931580e-01 -7.0840090513229370e-02 -2.2529175505042076e-02 -6.2938250601291656e-02 -2.0327301323413849e-01 3.1384533643722534e-01 -1.9562959671020508e-01 5.0141755491495132e-02 1.0229744762182236e-01 2.8732606768608093e-01 1.3331088423728943e-01 -1.9631755352020264e-01 1.9388188421726227e-01 5.9577163308858871e-02 -1.5037889778614044e-01 -3.1721425056457520e-01 2.2968228161334991e-01 -2.0133854448795319e-01 1.1931239813566208e-01 2.5011941790580750e-01 2.6597771048545837e-01 1.5234360098838806e-01 -7.2108488529920578e-03 -5.3994748741388321e-02 2.7610248327255249e-01 -1.5231412649154663e-01 2.6845830678939819e-01 5.1044922322034836e-02 -1.4193135499954224e-01 -1.1762611567974091e-01 -1.7154961824417114e-01 -9.5526978373527527e-02 1.6359820961952209e-01 1.9140672683715820e-01 2.0368088781833649e-01 -4.7711320221424103e-02 2.5936803221702576e-01 1.0198594629764557e-01 -2.8282538056373596e-01 2.5846236944198608e-01 -1.0874365270137787e-01 2.7550595998764038e-01 2.0701533555984497e-01 -2.5344157218933105e-01 -1.8080781400203705e-01 -1.9846484065055847e-01 1.3366718590259552e-01 2.2298993170261383e-01 -2.8856727480888367e-01 4.0419127792119980e-02 -4.4285897165536880e-02 6.1033898964524269e-03 -2.5870904326438904e-01 1.9851760566234589e-01 -3.2132625579833984e-01 8.9262835681438446e-02 -7.5955674052238464e-02 -2.6558479666709900e-01 1.9547745585441589e-01 -2.9035267233848572e-01 -1.8749901652336121e-01 3.3376365900039673e-02 2.2914589941501617e-01 -9.5786102116107941e-02 -1.0275900363922119e-01 1.9032438099384308e-01 5.6839112192392349e-02 -2.1781572699546814e-01 -2.1798522770404816e-01 1.3363966345787048e-01 -8.7932916358113289e-03 2.8802070766687393e-02 -3.2097805291414261e-02 -4.4742770493030548e-02 -4.7678444534540176e-02 2.7704820036888123e-01 2.2037850320339203e-01 2.3243302106857300e-01 2.3105119168758392e-01 -1.6128458082675934e-01 -7.9895772039890289e-02 -5.0974935293197632e-02 3.1486389040946960e-01 -1.1719829589128494e-01 4.2581439018249512e-02 2.5139996409416199e-01 2.6198798418045044e-01 2.9018026590347290e-01 8.8114850223064423e-02 1.1516509577631950e-02 -1.3772527873516083e-01 2.0534300804138184e-01 -8.5095465183258057e-02 -3.3695880323648453e-02 -2.9591453075408936e-01 2.9935401678085327e-01 1.1406800150871277e-01 1.2664085626602173e-01 -2.7880560606718063e-02 -3.1709438562393188e-01 5.5362522602081299e-02 -1.2353992462158203e-01 -1.7177283763885498e-01 1.3944897055625916e-01 -1.7345528304576874e-01 -2.0754460990428925e-01 -4.2394854128360748e-02 -1.0397889651358128e-02 5.8190435171127319e-02 2.2894105315208435e-01 -2.0214773714542389e-01 -6.1105668544769287e-02 2.8884640336036682e-01 3.3617964386940002e-01 -3.0763927102088928e-01 1.9778865575790405e-01 2.8876671195030212e-01 -6.9130823016166687e-02 1.8882334232330322e-02 -6.2654852867126465e-02 -1.5208873897790909e-02 4.4775322079658508e-02 1.6077928245067596e-01 -1.5676136314868927e-01 1.6999973356723785e-01 -1.9660082459449768e-01 1.3741856813430786e-01 1.6700445115566254e-01 4.7042362391948700e-02 1.6438464820384979e-01 -1.7407333850860596e-01 -6.4930960536003113e-02 -5.3925357758998871e-02 -4.4753544032573700e-02 -2.7965670824050903e-01 2.3561258614063263e-01 -1.1518167704343796e-01 -2.7412763237953186e-01 2.5198605656623840e-01 -1.1254129931330681e-02 -1.7967842519283295e-01 3.4631276130676270e-01 3.8653984665870667e-02 3.1021261215209961e-01 1.7408059537410736e-01 -2.9086336493492126e-01 2.0452581346035004e-01 -8.4150962531566620e-02 -1.3497158885002136e-01 1.5074448287487030e-01 3.1727296113967896e-01 3.1347081065177917e-02 2.2940450906753540e-01 3.0960103869438171e-01 -2.8593403100967407e-01 3.3130338788032532e-01 -2.2568045556545258e-01 -2.5463882088661194e-01 -2.9895547032356262e-01 -1.7712812125682831e-01 -2.2058148682117462e-01 2.2357505559921265e-01 -1.8493263423442841e-01 2.3295554518699646e-01 -3.2394517213106155e-02 1.4803075790405273e-01 -5.1525134593248367e-02 -6.3998617231845856e-02 -8.0380119383335114e-02 1.5977945923805237e-01 3.5083261132240295e-01 9.5844276249408722e-02 2.3516076803207397e-01 -2.9429209232330322e-01 -1.5026904642581940e-01 2.1782851219177246e-01 -2.9656583070755005e-01 1.5349452197551727e-01 2.9714491963386536e-01 -2.0193232595920563e-01 1.3077141344547272e-01 1.7793151736259460e-01 -1.1626042425632477e-01 -2.8938755393028259e-01 2.7248683571815491e-01 -1.1757706105709076e-01 -2.5835288688540459e-02 -1.8137082457542419e-01 2.8327679634094238e-01 2.0157673954963684e-01 -3.1716457009315491e-01 2.9443755745887756e-02 -1.8469209969043732e-01 1.8621122837066650e-01 2.7712637186050415e-01 2.5573894381523132e-01 -1.5841197967529297e-01 2.7332428097724915e-01 2.5967368483543396e-01 -2.1511837840080261e-01 -2.2255820035934448e-01 4.8851981759071350e-02 -2.1852296590805054e-01 -9.4794388860464096e-03 1.1545427143573761e-01 -2.4902607500553131e-01 3.0138999223709106e-02 -5.1636237651109695e-02 2.4945263564586639e-01 1.1793495714664459e-01 1.9640332460403442e-01 -1.4697246253490448e-01 2.1864141523838043e-01 -2.9664003849029541e-01 7.8415349125862122e-02 -2.2968147695064545e-01 -1.6391405463218689e-01 -1.4541128277778625e-01 1.6997538506984711e-01 -8.0496579408645630e-02 -3.4971067309379578e-01 -3.0880039930343628e-01 -2.6024356484413147e-01 2.0100291073322296e-01 -1.6002601385116577e-01 2.5715222954750061e-01 -1.4914306998252869e-01 -1.1780343204736710e-01 3.4591642022132874e-01 -7.1708232164382935e-02 -1.0861036926507950e-01 3.0373612046241760e-01 -6.9195143878459930e-02 -5.3955569863319397e-02 -2.4529509246349335e-01 1.8362383544445038e-01 -2.7868986129760742e-01 1.6343523561954498e-01 -6.0971617698669434e-02 -1.6358417272567749e-01 -1.1690968647599220e-02 1.1606033891439438e-02 2.1623133122920990e-01 1.8817013502120972e-01 4.1722711175680161e-02 -2.7798536419868469e-01 2.2163826227188110e-01 2.8321543335914612e-01 4.5279730111360550e-02 2.6361322402954102e-01 3.3052541315555573e-02 -1.0964030027389526e-01 6.7177221179008484e-02 3.1197404861450195e-01 8.1552870571613312e-02 8.9950732886791229e-02 -9.2529691755771637e-02 -2.7283465862274170e-01 1.2331360485404730e-03 2.1778509020805359e-01 4.7624893486499786e-02 1.0069387406110764e-01 -1.7386351525783539e-01 -1.7740620672702789e-01 2.6365366578102112e-01 -1.3113591074943542e-01 -8.7734065949916840e-02 -2.6219624280929565e-01 -2.7405428886413574e-01 -1.0530801117420197e-01 2.7188256382942200e-01 -2.9683351516723633e-01 7.6776616275310516e-02 -2.0819088816642761e-01 1.6750514507293701e-01 2.4111168086528778e-01 -1.1561121791601181e-01 -2.3931753635406494e-01 4.8051457852125168e-03 -1.6838602721691132e-01 3.3484807610511780e-01 2.7413517236709595e-01 1.3361689448356628e-01 2.4165585637092590e-01 -1.4314192533493042e-01 -2.6465159654617310e-01 -2.5752598047256470e-01 -1.6542527079582214e-01 -2.7038905024528503e-01 -1.1078985407948494e-02 -2.2655744850635529e-01 2.0806901156902313e-01 -8.6022309958934784e-02 -1.9164780154824257e-02 3.9825774729251862e-02 -1.1037892848253250e-01 -1.8879133462905884e-01 -2.8272008895874023e-01 -2.4805709719657898e-02 -2.4192716181278229e-01 -2.0229229331016541e-01 -2.8702375292778015e-01 2.9920944571495056e-01 -2.8288152813911438e-01 2.0427690446376801e-01 1.7764073610305786e-01 -1.8096525967121124e-01 1.1290994472801685e-02 8.2257464528083801e-02 -2.7043101191520691e-01 -2.2700922191143036e-01 1.7788170278072357e-01 1.9279927015304565e-01 -1.7390885949134827e-01 9.0326651930809021e-02 2.0584553480148315e-01 1.9453200697898865e-01 2.9720437526702881e-01 3.7942543625831604e-02 -1.0311401635408401e-01 1.9446107745170593e-01 1.6409149765968323e-01 -1.8290926516056061e-01 -2.0815166831016541e-01 -2.5004792213439941e-01 4.5986618846654892e-02 9.9429070949554443e-02 5.1040317863225937e-02 -5.1613159477710724e-02 -2.4817299842834473e-01 2.9063507914543152e-01 -1.2249151617288589e-01 1.1917417496442795e-01 2.1362306177616119e-01 -2.5534373521804810e-01 1.4292125590145588e-02 -1.1934974789619446e-01 -3.1601861119270325e-01 -2.7067953348159790e-01 2.2744821012020111e-01 -2.3199895024299622e-01 -2.9663941264152527e-01 2.3255331814289093e-01 1.9137161970138550e-01 3.2773524522781372e-02 -1.9548502564430237e-01 -2.7986279129981995e-01 2.3125870525836945e-01 -1.5805596113204956e-01 -3.0468118190765381e-01 5.2115362137556076e-02 -2.7817560359835625e-02 1.1157480627298355e-01 1.7833748459815979e-01 2.1669547259807587e-01 -5.0140865147113800e-02 1.8865005671977997e-01 2.7530020102858543e-02 1.7796935141086578e-01 -3.0889552831649780e-01 2.6299208402633667e-03 -3.3851397037506104e-01 -2.2113654017448425e-01 2.8784132003784180e-01 1.9657549262046814e-01 2.2539222240447998e-01 -5.0963219255208969e-02 -2.2405222058296204e-01 -2.5456488132476807e-01 -2.6265338063240051e-01 5.2700988948345184e-02 -2.5336730480194092e-01 -2.6232272386550903e-01 2.9597729444503784e-01 2.0560513436794281e-01 -1.7385791242122650e-01 -9.1417364776134491e-02 3.4771475195884705e-01 -2.7954438328742981e-01 2.9780036211013794e-01 1.8319612741470337e-01 2.7597343921661377e-01 -8.8612824678421021e-02 1.6608582437038422e-01 -2.3933281004428864e-01 8.4530144929885864e-02 -3.0994173884391785e-01 -1.6889727115631104e-01 -8.8829785585403442e-02 3.0587816238403320e-01 -1.8888407945632935e-01 -1.8612049520015717e-01 -3.1462663412094116e-01 -2.3706898093223572e-01 -1.0770754516124725e-01 -3.9431046694517136e-02 3.5764530301094055e-02 2.2382603585720062e-01 1.6278622671961784e-02 -2.9730537533760071e-01 -2.8690198063850403e-01 -1.4892274141311646e-01 -9.3453653156757355e-02 2.8849601745605469e-01 -1.9683234393596649e-01 -1.0450202971696854e-01 2.3027038574218750e-01 1.1728427559137344e-01 1.9220870733261108e-01 2.2388249635696411e-01 -7.2624996304512024e-02 7.4451990425586700e-02 -2.4157591164112091e-01 2.4752967059612274e-01 1.9002223014831543e-01 2.1265335381031036e-01 -2.4339769035577774e-02 -2.8284019231796265e-01 -2.4408859014511108e-01 -4.3271549046039581e-02 -1.4700877666473389e-01 2.3569611366838217e-03 -2.5521755218505859e-01 1.6588702797889709e-01 3.0266547203063965e-01 -3.7348917126655579e-01 1.2573644518852234e-01 7.5169622898101807e-02 3.0518767889589071e-03 2.1453809738159180e-01 -1.7674313485622406e-01 4.1907422244548798e-02 2.9653334617614746e-01 -2.5068092346191406e-01 -1.4828039705753326e-01 -7.1195222437381744e-02 1.5647687017917633e-01 3.9153136312961578e-02 2.0721659064292908e-01 2.4886313080787659e-01 3.1164100766181946e-01 1.3514052331447601e-01 -2.8993734717369080e-01 3.8597393780946732e-02 1.9813967868685722e-02 9.9275939166545868e-02 -2.3824314773082733e-01 -2.1897654980421066e-02 -2.4189718067646027e-01 -2.9656348749995232e-02 -1.0270616039633751e-02 -6.3573524355888367e-02 -1.0254766047000885e-01 2.4479934573173523e-01 -9.1522209346294403e-02 8.2429386675357819e-02 -2.8013321757316589e-01 2.8533205389976501e-01 3.4549462795257568e-01 -2.4540361762046814e-01 3.1841179728507996e-01 -3.3880051225423813e-02 -1.6885788738727570e-01 2.0145250856876373e-01 2.3238411545753479e-01 -1.8598403036594391e-01 -2.4445867538452148e-01 -1.3097089529037476e-01 8.5905693471431732e-02 -7.3042325675487518e-02 2.8293672204017639e-01 -2.0498718321323395e-01 -4.2549125850200653e-02 1.9066919386386871e-01 2.1436457335948944e-01 2.4060405790805817e-01 -1.7911192774772644e-01 2.9288253188133240e-01 7.4934080243110657e-02 -1.2846177816390991e-01 -2.9111707210540771e-01 7.7691823244094849e-02 1.3427096419036388e-03 3.5668516065925360e-03 4.5427765697240829e-02 2.1164013445377350e-01 3.2070550322532654e-01 2.1751512587070465e-01 -1.5188188850879669e-01 -9.3058280646800995e-02 3.0292612314224243e-01 -2.1154046058654785e-02 3.3910745382308960e-01 -1.5015673637390137e-01 1.8589362502098083e-01 -1.5485136210918427e-01 -3.3016636967658997e-02 -2.8850728645920753e-02 2.5342237949371338e-01 -2.7874320745468140e-01 -2.3764748871326447e-01 2.1807053685188293e-01 -1.8260346353054047e-01 1.6705553233623505e-01 1.3505093753337860e-01 1.8129360675811768e-01 1.1625154316425323e-01 -6.7838601768016815e-02 3.3039757609367371e-01 -7.2548568248748779e-02 1.3624286651611328e-01 -4.2451329529285431e-02 2.7278801798820496e-01 1.3919773697853088e-01 2.9481047391891479e-01 1.1698149144649506e-02 -1.2482779473066330e-01 -9.5679126679897308e-02 -2.9469072818756104e-01 8.5286833345890045e-02 4.1492208838462830e-02 6.0861087404191494e-03 -9.4922006130218506e-02 2.6968896389007568e-01 -3.0054333806037903e-01 3.0014240741729736e-01 3.1352722644805908e-01 2.7842038869857788e-01 1.1547850072383881e-01 1.0692491382360458e-01 2.8798305988311768e-01 1.8198288977146149e-01 -7.0893295109272003e-02 -1.8411380052566528e-01 -1.0193259268999100e-01 2.1384477615356445e-02 -1.2807417660951614e-02 -3.3713418245315552e-01 1.6809128224849701e-01 -2.1446999907493591e-01 8.3543226122856140e-02 -2.5230637192726135e-01 6.9131650030612946e-02 2.5024437904357910e-01 2.8257060050964355e-01 7.5391918420791626e-02 7.8884787857532501e-02 3.2634410262107849e-01 3.3665585797280073e-03 -5.2654679864645004e-02 4.9971587955951691e-02 -4.5315634459257126e-02 1.9110962748527527e-01 1.3083977997303009e-01 2.0793303847312927e-01 -1.2476120144128799e-01 5.4832413792610168e-02 3.2216647267341614e-01 -2.6823234558105469e-01 2.3466640710830688e-01 2.3913286626338959e-01 3.4526318311691284e-02 -1.7700622975826263e-01 -5.2430331707000732e-02 2.3656734824180603e-01 -2.5282731652259827e-01 -3.0725711584091187e-01 1.5874786674976349e-01 1.1590719968080521e-01 -1.9941073656082153e-01 -4.4225705787539482e-03 7.6990546658635139e-03 -4.4099815189838409e-02 2.7932038903236389e-01 9.3638613820075989e-02 -2.8044924139976501e-01 2.5628721714019775e-01 1.9488811492919922e-01 -6.2760904431343079e-02 -1.6857118904590607e-01 -2.2517889738082886e-01 -2.7071502059698105e-02 2.1222001314163208e-01 3.0873331427574158e-01 1.1927136778831482e-01 -2.3307913541793823e-01 8.6191810667514801e-02 2.4986034631729126e-01 -1.3053540885448456e-01 2.5024610757827759e-01 2.0805250108242035e-01 1.6935813426971436e-01 1.9187172874808311e-02 1.8096835911273956e-01 -2.9848700761795044e-01 2.5203135609626770e-01 7.8061550855636597e-02 1.5871681272983551e-01 3.1463027000427246e-01 1.4481944032013416e-02 6.3268862664699554e-02 1.6847167909145355e-01 -1.6529715061187744e-01 3.2753762602806091e-01 2.5886788964271545e-01 -5.3865192458033562e-03 -1.3636675663292408e-02 
      </Weights>
      <Biases rows="128" cols="1">
        3.3031102269887924e-02 3.1099936459213495e-03 -2.0547088235616684e-02 3.0912261456251144e-02 -2.7430178597569466e-03 -1.7526336014270782e-02 -4.5379325747489929e-03 -1.6588261350989342e-02 -1.8637549364939332e-03 -9.8173273727297783e-03 2.9644552618265152e-02 2.3180710151791573e-02 2.0599842071533203e-02 -2.3227240890264511e-02 1.7258139327168465e-02 -8.3853667601943016e-03 -3.1585350632667542e-02 3.6216787993907928e-02 4.5137599110603333e-02 1.5069756656885147e-02 8.5017066448926926e-03 -4.2211454361677170e-02 4.8867926001548767e-02 2.8872482478618622e-02 2.5064308196306229e-02 4.9821760505437851e-02 3.2148208469152451e-02 -8.2342522218823433e-03 7.7413176186382771e-03 -7.7079124748706818e-02 -1.2084155343472958e-02 -1.5441181138157845e-02 -7.0725982077419758e-03 -3.4051388502120972e-03 -6.2238663434982300e-02 -3.6525383591651917e-02 -1.6108661890029907e-02 1.2597972527146339e-02 -7.0692710578441620e-02 4.5288011431694031e-02 9.3896966427564621e-03 -3.2571781426668167e-02 1.5500815585255623e-02 3.6575712263584137e-02 1.0942304506897926e-02 -3.4532915800809860e-02 9.3357833102345467e-03 3.9973799139261246e-02 -1.3725601136684418e-02 -1.5915790572762489e-02 -2.7852228377014399e-03 2.5535322725772858e-02 -2.7346823364496231e-02 -4.3632458895444870e-02 -4.1037974879145622e-03 1.6410792246460915e-02 8.2502560690045357e-03 4.1113130748271942e-02 2.1337689831852913e-02 -5.7495638728141785e-02 2.3972552269697189e-02 6.4183555543422699e-02 7.1228854358196259e-04 2.2260675206780434e-02 1.7275515943765640e-02 -2.4074295535683632e-02 -2.0211216062307358e-02 8.7507703574374318e-04 -1.0808866471052170e-02 1.3056817464530468e-02 -1.8073301762342453e-02 -4.6637188643217087e-02 3.8750834763050079e-02 1.1843367479741573e-02 -5.0575770437717438e-02 -3.5961125046014786e-02 5.4840948432683945e-02 2.7213925495743752e-02 2.9184330254793167e-02 -1.7251543700695038e-02 2.1718747448176146e-03 3.4309164038859308e-04 1.1822653003036976e-02 1.9000252708792686e-02 7.7474745921790600e-03 3.6482151597738266e-02 1.1505804955959320e-02 3.0306433327496052e-03 1.4485741034150124e-02 -1.6965936869382858e-02 -7.1250912733376026e-03 3.0511068180203438e-03 -3.5855140537023544e-02 -8.3215450868010521e-03 4.4631153345108032e-02 3.6624229978770018e-03 -2.9404412955045700e-02 -1.9222125411033630e-02 -3.3621650189161301e-02 3.3303793519735336e-02 8.3966826787218451e-04 1.4798431657254696e-02 -6.9248275831341743e-03 1.0476031340658665e-02 2.4586000945419073e-03 2.2424977272748947e-02 -9.0148765593767166e-03 1.9692780449986458e-02 -9.4569753855466843e-03 -2.1364910528063774e-02 -4.3885181657969952e-03 2.5340994819998741e-02 -2.2492602467536926e-02 4.3085530400276184e-02 -8.1543909618631005e-04 6.3093788921833038e-02 -3.7432651966810226e-02 2.3765763267874718e-02 -4.5520395040512085e-02 -2.0884741097688675e-02 -2.5087701156735420e-02 -1.4739998616278172e-02 -2.5813074782490730e-02 3.5238452255725861e-02 -3.5514611750841141e-02 2.3067880421876907e-02 -3.4560512751340866e-02 -3.3014450222253799e-02 
      </Biases>
    </Layer>
    <Layer ActivationFunction="3">
      <Weights rows="128" cols="128">
        3.2539192587137222e-02 8.2302898168563843e-02 8.5909701883792877e-02 -1.1048967391252518e-01 3.3652935177087784e-02 5.2905996562913060e-04 -3.3976938575506210e-03 7.9995028674602509e-02 6.8694472312927246e-02 2.6132669299840927e-02 7.4432253837585449e-02 -3.4865807741880417e-02 1.0125390440225601e-01 -6.3983663916587830e-02 -5.0989586859941483e-02 8.5650593042373657e-02 2.7830065228044987e-03 -1.6578098759055138e-02 2.9848396778106689e-02 8.3921710029244423e-03 -5.1865775138139725e-02 -8.2573473453521729e-02 -6.3721314072608948e-02 -6.7586347460746765e-02 -7.8444965183734894e-02 -6.7278239876031876e-03 -6.1670448631048203e-02 -4.8938389867544174e-02 -3.4873418509960175e-02 -4.6597562730312347e-02 1.0465821251273155e-02 1.0191245004534721e-02 1.1181323230266571e-01 -9.0474836528301239e-02 -3.1513493508100510e-02 4.2678643018007278e-02 6.2038417905569077e-02 5.6267410516738892e-02 3.2177586108446121e-02 -3.0820583924651146e-02 3.3737324178218842e-02 8.7318137288093567e-02 -2.2017791867256165e-02 3.8337107747793198e-02 -1.0934987105429173e-02 -8.5453063249588013e-02 -2.5569679215550423e-02 -6.8864241242408752e-02 6.9518417119979858e-02 -4.4773393310606480e-03 7.0455797016620636e-02 -6.5286032855510712e-02 8.0611474812030792e-02 9.4136476516723633e-02 -3.8378421217203140e-02 -3.4847415983676910e-02 5.7783585041761398e-02 2.1683145314455032e-02 -3.1816193950362504e-04 -7.4391677975654602e-02 -5.1848320290446281e-03 3.5736262798309326e-02 -2.4907281622290611e-02 8.3935678005218506e-02 -7.2252102196216583e-02 5.6708101183176041e-02 9.8907776176929474e-02 8.2309022545814514e-02 -3.8691781461238861e-02 7.0440910756587982e-02 -5.2719812840223312e-02 5.2819699048995972e-03 -1.4840573072433472e-02 6.3839457929134369e-02 9.2489957809448242e-02 5.9089113026857376e-02 -1.8270855769515038e-02 5.8259747922420502e-02 2.7147222310304642e-02 6.5804680343717337e-04 4.2658556252717972e-02 9.6596829593181610e-02 -3.5790834575891495e-02 -5.3319294005632401e-02 2.0700540393590927e-02 8.4356658160686493e-02 -6.2430039048194885e-02 6.2863476574420929e-02 8.4742300212383270e-02 5.4998777806758881e-02 -6.1332534998655319e-02 3.0723806470632553e-02 3.5697102546691895e-02 -6.9345936179161072e-02 -3.8595989346504211e-02 1.0859993100166321e-01 5.2298773080110550e-02 8.3029463887214661e-02 2.5085084140300751e-02 8.5596680641174316e-02 -1.4560850337147713e-02 6.0352198779582977e-02 -8.4774486720561981e-02 -3.1458549201488495e-02 -2.3342918604612350e-02 -2.2746892645955086e-02 -4.5994474203325808e-04 5.6949410587549210e-02 8.9682541787624359e-02 -1.1103042215108871e-01 4.3264601379632950e-02 4.0638942271471024e-02 -4.1256081312894821e-02 -1.0103303939104080e-01 -6.3373841345310211e-02 8.2145050168037415e-02 3.9854716509580612e-02 -2.8874093666672707e-02 4.6957198530435562e-02 1.0818899422883987e-01 1.0994720272719860e-02 -3.5284616053104401e-02 -8.7996520102024078e-02 6.0904193669557571e-02 -2.4218549951910973e-03 6.3829362392425537e-02 -6.4985924400389194e-03 7.6028399169445038e-02 -7.3674959130585194e-03 -1.0797940194606781e-01 2.3906556889414787e-02 2.1683216094970703e-02 6.5568007528781891e-02 8.2325085997581482e-02 -9.5177919138222933e-04 5.7838324457406998e-02 1.2609820812940598e-02 9.8294630646705627e-02 -5.7400733232498169e-02 -2.1302204579114914e-02 -5.4879929870367050e-02 -1.3463314622640610e-02 -5.0823282450437546e-02 3.2880656421184540e-02 1.1075805872678757e-01 1.7387596890330315e-02 9.3987226486206055e-02 1.9860483705997467e-02 9.3835182487964630e-03 -1.7794564366340637e-02 -1.0622301697731018e-01 -2.3640189319849014e-03 5.0786867737770081e-02 -1.1189909279346466e-01 -5.0536680966615677e-02 1.3650798797607422e-01 6.8778112530708313e-02 3.5650782287120819e-02 6.9308415055274963e-02 5.1452949643135071e-02 -4.3725814670324326e-02 -6.4513429999351501e-02 4.9093272536993027e-04 5.1722586154937744e-02 5.5648248642683029e-02 -2.2017998620867729e-02 6.3247732818126678e-02 -6.9087147712707520e-02 -8.2247607409954071e-02 -4.5387106947600842e-03 -7.2436131536960602e-02 7.7107049524784088e-02 -2.3049943149089813e-02 5.0094481557607651e-02 -1.3785751163959503e-01 -8.3223871886730194e-02 8.4838353097438812e-02 -1.3661916600540280e-03 5.6277979165315628e-02 5.9652263298630714e-03 -1.5211031772196293e-02 7.4547134339809418e-02 -3.6168228834867477e-02 -9.5947884023189545e-02 -7.9298503696918488e-02 1.0725837945938110e-01 3.7427544593811035e-02 4.0743313729763031e-03 -8.6567990481853485e-02 -5.5265337228775024e-02 4.6115545555949211e-03 -4.7277458012104034e-02 6.5823301672935486e-02 6.0201346874237061e-02 1.4469771087169647e-01 2.0188545808196068e-02 4.6130731701850891e-02 -6.0749642550945282e-02 -1.1764524132013321e-01 1.0563314706087112e-01 -1.1074843257665634e-01 -6.6725216805934906e-02 -7.7066630125045776e-02 1.0945777595043182e-01 -1.7813188955187798e-02 1.1645099520683289e-01 -1.9328944385051727e-02 -1.1085876077413559e-01 1.3907403685152531e-02 2.0178927108645439e-02 -3.2328370958566666e-02 -5.0098389387130737e-02 3.2401707023382187e-02 -1.3156814873218536e-01 7.4598833918571472e-02 1.9851313903927803e-02 1.2713381648063660e-01 9.1595396399497986e-02 -1.9267234951257706e-02 -3.8699042052030563e-02 1.0916274040937424e-01 1.5209150314331055e-01 3.4313794225454330e-02 -5.9265110641717911e-02 7.0408143103122711e-02 1.2282873690128326e-01 6.7879520356655121e-02 -7.0019118487834930e-02 6.9095291197299957e-02 5.9251248836517334e-02 -9.7850799560546875e-02 -6.7880414426326752e-02 1.3691456615924835e-01 4.9006879329681396e-02 5.5910885334014893e-02 -1.4287205040454865e-01 -4.5559806749224663e-03 -4.4621486216783524e-02 -9.4460070133209229e-02 -8.6243711411952972e-02 -9.6986398100852966e-02 1.7811462283134460e-02 4.8131808638572693e-02 -1.0901886224746704e-01 -3.1149461865425110e-02 -3.4469306468963623e-02 6.8865828216075897e-02 7.9458750784397125e-02 -7.9052448272705078e-02 3.5806618630886078e-02 1.3742767274379730e-01 -5.0607133656740189e-02 1.3909682631492615e-01 8.5226699709892273e-02 -2.5191981345415115e-02 -5.3261745721101761e-02 1.0425478219985962e-01 -3.7346560508012772e-02 3.8595315068960190e-02 6.8265169858932495e-02 -2.0638586953282356e-02 -7.8157089650630951e-02 -3.0874991789460182e-02 -9.1253273189067841e-02 -5.0509545952081680e-02 5.4049547761678696e-02 -3.2761625479906797e-03 8.1105746328830719e-02 -4.0405083447694778e-02 4.2810481041669846e-02 2.9105339199304581e-02 6.0278652235865593e-03 -9.1983079910278320e-02 -2.4731839075684547e-03 -6.4839101396501064e-03 8.9483276009559631e-02 8.7446050019934773e-04 3.3041570335626602e-02 -4.9648839980363846e-02 2.8650747612118721e-02 -9.5617823302745819e-02 3.5168357193470001e-02 -6.1236146837472916e-02 3.7576120346784592e-02 3.9880769327282906e-03 1.8001785501837730e-02 9.0003391960635781e-04 -7.1142993867397308e-02 7.5198546051979065e-02 -1.2248239666223526e-01 -8.3472393453121185e-02 4.2444825172424316e-02 -7.8298822045326233e-02 -5.3303983062505722e-02 -8.8243716163560748e-04 6.6582113504409790e-02 -1.5419852919876575e-02 -8.8199645280838013e-02 2.6711504906415939e-02 -2.8588812798261642e-02 -4.6768989413976669e-02 -6.5332382917404175e-02 -8.8013596832752228e-02 -4.0572013705968857e-02 -1.0624313354492188e-01 8.8361084461212158e-02 4.2140752077102661e-02 4.7928723506629467e-03 -4.1073616594076157e-02 -1.0002702474594116e-01 1.1659018695354462e-02 -9.4312407076358795e-02 4.1162606328725815e-02 1.4343952760100365e-02 3.8649339228868484e-02 -3.0019879341125488e-02 3.6183334887027740e-02 -7.7979691326618195e-02 -7.3519848287105560e-02 -4.4723026454448700e-02 9.3004740774631500e-02 -6.0423802584409714e-02 -5.2710168063640594e-02 8.5238531231880188e-02 3.5097361542284489e-03 6.0918249189853668e-02 -1.2474439106881618e-02 -8.9666090905666351e-02 -7.3689967393875122e-02 -7.9648956656455994e-02 -5.9352843090891838e-03 -9.3754611909389496e-02 -1.0690927505493164e-01 -8.8703192770481110e-02 8.2684919238090515e-02 -2.1806249395012856e-02 -2.3594379425048828e-02 -3.7091054022312164e-02 1.2342981994152069e-01 8.5724264383316040e-02 6.5547595731914043e-03 9.6031285822391510e-02 1.0043865442276001e-01 -7.3279939591884613e-02 1.0015341453254223e-02 -1.1358544230461121e-01 7.2798021137714386e-02 2.1211183629930019e-03 -1.3977589085698128e-02 6.8984068930149078e-02 3.7452541291713715e-03 -5.3339459002017975e-02 -7.3648072779178619e-02 4.1218981146812439e-02 -9.8449282348155975e-02 -7.3920935392379761e-02 -1.0469151288270950e-01 9.3643188476562500e-02 -1.0929838754236698e-02 4.5519217848777771e-02 -7.3140463791787624e-03 8.6572781205177307e-02 9.1051161289215088e-02 -4.5646220445632935e-02 -9.6313849091529846e-02 1.1862210929393768e-01 -3.5660393536090851e-02 -1.2956209480762482e-02 -7.0412792265415192e-02 4.6925857663154602e-02 4.4838093221187592e-02 -2.0117012783885002e-02 -3.6640662699937820e-02 8.8397964835166931e-02 4.6504616737365723e-02 -9.0983927249908447e-02 -2.0867881830781698e-03 7.6253674924373627e-02 7.3982566595077515e-02 -2.5438893586397171e-02 -7.6917691330891103e-05 -5.2195765078067780e-02 -1.1838779598474503e-01 -1.1404276639223099e-01 -3.0108429491519928e-03 1.0219429433345795e-01 8.8088639080524445e-02 1.5730882063508034e-02 7.2022013366222382e-02 4.9050468951463699e-03 -5.8373052626848221e-02 -5.3663574159145355e-02 -4.1888993233442307e-02 1.7025349661707878e-02 -3.4998856484889984e-02 8.4788843989372253e-02 -7.6361104846000671e-02 1.1848999559879303e-01 8.6487624794244766e-03 -3.1554076820611954e-02 3.0203575734049082e-03 1.8898716196417809e-02 -3.2391216605901718e-02 -9.3978054821491241e-02 2.7723345905542374e-02 -4.9425501376390457e-02 7.2126150131225586e-02 5.4307404905557632e-02 -5.8351051062345505e-02 -5.7420857250690460e-02 5.1672719419002533e-02 -1.7432239837944508e-03 1.1106274276971817e-01 -2.3321783170104027e-02 9.5283515751361847e-02 -8.5258200764656067e-02 9.1900639235973358e-02 8.9614704251289368e-02 -1.1176738888025284e-01 7.7475912868976593e-02 3.1166439875960350e-02 6.6462323069572449e-02 6.9257348775863647e-02 4.5330386608839035e-02 -4.0115244686603546e-02 -3.9161004126071930e-02 1.1550264060497284e-01 9.3597188591957092e-02 -7.7717624604701996e-02 6.2378112226724625e-02 1.2526715872809291e-03 -3.9618745446205139e-02 4.2056813836097717e-02 8.1184253096580505e-02 8.0923940986394882e-03 -9.9519461393356323e-02 -6.1441972851753235e-02 -3.0338881537318230e-02 8.2039944827556610e-02 1.6195269301533699e-02 -1.2753090262413025e-01 2.3623956367373466e-02 9.6887191757559776e-03 4.7021418809890747e-02 1.0933821648359299e-01 2.8887001797556877e-02 -1.0446871817111969e-01 -2.4146640673279762e-02 -4.3753631412982941e-02 -9.0837702155113220e-02 -5.9950966387987137e-02 -9.5503434538841248e-02 3.9210222661495209e-02 7.7421993017196655e-02 7.1764411404728889e-03 3.3738071215339005e-04 -2.8218753635883331e-02 1.1204257607460022e-01 -7.3916867375373840e-02 -1.7235228791832924e-02 -1.1103069782257080e-01 8.9617222547531128e-02 6.8374469876289368e-02 -5.8141995221376419e-02 1.7215132247656584e-03 4.1643936187028885e-02 -5.9318602085113525e-02 -6.0293070971965790e-02 -7.9006822779774666e-03 3.7315085530281067e-02 8.6597405374050140e-02 9.0727604925632477e-02 1.1382629722356796e-01 1.0213379561901093e-01 2.7327435091137886e-02 3.8418568670749664e-02 4.8041166737675667e-03 3.4154735505580902e-02 3.2031750306487083e-03 4.8027329146862030e-02 -9.8926477134227753e-02 -3.5185646265745163e-02 8.6674079298973083e-02 -6.7162863910198212e-02 -7.9537838697433472e-02 -2.1104685962200165e-02 5.0901964306831360e-02 -6.3398659229278564e-02 5.8551710098981857e-02 6.9721870124340057e-02 6.0500103980302811e-02 5.0395816564559937e-02 1.3422457873821259e-01 4.4091135263442993e-02 9.9320970475673676e-02 8.8531397283077240e-02 4.9406800419092178e-02 2.0483996719121933e-02 1.5132933855056763e-02 1.0804118216037750e-01 2.6544472202658653e-02 -1.0401371866464615e-01 -4.1319631040096283e-02 -5.4768647998571396e-02 9.4633877277374268e-02 -2.8923427686095238e-02 4.2250424623489380e-02 -1.4163389801979065e-02 6.9010414183139801e-02 1.2470646202564240e-01 -7.0969387888908386e-02 2.1372521296143532e-02 -4.0714409202337265e-02 -1.5997868031263351e-02 -3.6210518330335617e-02 -5.7841364294290543e-02 -1.8040614202618599e-02 1.0239539295434952e-01 -1.0017408430576324e-01 1.4153871685266495e-02 6.3134215772151947e-02 -6.7240819334983826e-02 3.5652269143611193e-03 6.4432412385940552e-02 -9.7432255744934082e-02 -9.9890241399407387e-03 -7.6202027499675751e-02 5.8529581874608994e-03 2.4133188650012016e-02 8.5516534745693207e-03 6.6241219639778137e-02 3.8317840080708265e-03 -3.7705425173044205e-02 -6.9514170289039612e-02 -8.4634505212306976e-02 8.5823759436607361e-02 1.2465081177651882e-02 9.0434730052947998e-02 -8.0853626132011414e-02 1.1083503812551498e-01 7.9525326145812869e-04 6.3804261386394501e-02 3.5419113934040070e-02 3.8009490817785263e-03 1.2059199810028076e-01 8.8236697018146515e-02 -8.4626518189907074e-02 -5.8457076549530029e-02 -6.9410137832164764e-02 -4.3833259493112564e-02 7.0560358464717865e-02 7.3638455942273140e-03 1.0963580012321472e-01 -5.0578098744153976e-02 4.2035125195980072e-02 -2.4122349917888641e-02 -2.1175488829612732e-02 -5.0035472959280014e-03 -9.4284348189830780e-02 9.0317368507385254e-02 3.3188179135322571e-02 -6.4499966800212860e-02 1.1971934884786606e-01 8.7272025644779205e-02 -1.0958227515220642e-01 9.0344987809658051e-02 -6.4996533095836639e-02 -4.9251308664679527e-03 -1.2437431514263153e-01 -7.7321827411651611e-02 9.1442614793777466e-03 1.0260134935379028e-01 2.8656039386987686e-02 8.6681678891181946e-02 -4.8401057720184326e-03 -6.5052047371864319e-02 -3.6944828927516937e-02 -8.7351597845554352e-02 3.0058778356760740e-03 -9.2669516801834106e-02 6.1769444495439529e-02 -9.7604744136333466e-02 -8.0691099166870117e-02 1.0587418824434280e-01 1.0355971753597260e-02 3.6595724523067474e-02 9.9010124802589417e-02 -4.1784759610891342e-02 3.8197718560695648e-02 -2.4543320760130882e-02 7.9328075051307678e-02 -9.5251373946666718e-02 5.9995789080858231e-02 -3.3217031508684158e-02 6.4149908721446991e-02 -5.6021776981651783e-03 8.0114334821701050e-02 -1.0442668199539185e-01 4.0043059736490250e-02 7.0923320949077606e-02 7.3560938239097595e-02 8.8348411023616791e-02 -8.8465504348278046e-02 9.9364697933197021e-02 4.0290858596563339e-02 -5.8012574911117554e-02 3.7587277591228485e-02 4.2924135923385620e-03 -1.1563630402088165e-01 -5.7958606630563736e-03 8.5177391767501831e-02 -9.3913719058036804e-02 3.9506848901510239e-02 -5.1864005625247955e-02 1.1097493581473827e-02 8.1746339797973633e-02 -8.0241017043590546e-02 -9.9386453628540039e-02 3.3809997141361237e-02 -9.9379338324069977e-02 2.1218929439783096e-02 5.5164847522974014e-02 -4.6945330686867237e-03 1.0586453601717949e-02 -4.7169864177703857e-02 -9.4929046928882599e-02 7.6199404895305634e-02 2.2861426696181297e-02 -9.4048589468002319e-02 7.5393959879875183e-02 1.6331093385815620e-02 1.3006621599197388e-01 1.0413850098848343e-01 -4.2498126626014709e-02 8.4650345146656036e-02 -8.3891332149505615e-02 9.7842417657375336e-02 2.9879609122872353e-02 -8.1637583673000336e-02 -8.1069417297840118e-02 7.5008675456047058e-02 2.2750701755285263e-02 -5.9619616717100143e-02 1.0790481418371201e-01 1.8017649650573730e-02 5.5788265308365226e-04 -9.2550948262214661e-02 -6.1256770044565201e-02 -3.1045777723193169e-02 -3.0257752165198326e-02 4.4020760804414749e-02 -1.6719730570912361e-02 1.3259754516184330e-02 -2.4972388520836830e-02 -3.8838382810354233e-02 -3.0242677778005600e-02 -6.3282869756221771e-02 -2.5143548846244812e-03 8.3448737859725952e-02 -1.0873267799615860e-01 7.6719842851161957e-02 -2.1215546876192093e-02 -5.3922921419143677e-02 8.8191293179988861e-02 8.5688523948192596e-02 -6.7265227437019348e-02 -8.0034524202346802e-02 3.9056342095136642e-02 -7.9115241765975952e-02 9.6007294952869415e-02 -4.7446291893720627e-02 9.4665698707103729e-02 -6.7799568176269531e-02 -1.8801382975652814e-03 2.1089611575007439e-02 -3.4434027969837189e-02 1.1338445544242859e-01 4.9468364566564560e-02 -6.1891447752714157e-02 1.0520338267087936e-01 1.1557070165872574e-01 1.0592474043369293e-01 8.5892483592033386e-02 1.0861623287200928e-01 -9.2316962778568268e-02 9.6197754144668579e-02 6.6674966365098953e-03 2.8134329244494438e-02 -7.5504831969738007e-02 -9.4391405582427979e-02 -3.4782506525516510e-02 9.5620214939117432e-02 -6.3251482788473368e-04 3.9065498858690262e-02 -1.2094021588563919e-01 1.0349925607442856e-02 -6.1955377459526062e-02 -9.6780136227607727e-02 -8.5912853479385376e-02 -6.6465966403484344e-02 5.3119435906410217e-03 4.6494882553815842e-02 -7.5636513531208038e-02 -1.0462448000907898e-02 7.7931150794029236e-02 1.1906576110050082e-03 2.5567220523953438e-02 -1.0021474957466125e-01 8.1143870949745178e-02 -8.1414759159088135e-02 4.0510747581720352e-02 6.2855750322341919e-02 -9.1294504702091217e-02 -4.8970077186822891e-02 -3.3779282122850418e-02 3.9394028484821320e-02 -6.2291927635669708e-02 -8.0747142434120178e-02 3.5820949822664261e-02 1.7237059772014618e-02 2.6478584855794907e-02 1.8316745758056641e-02 8.2878237590193748e-03 7.8143864870071411e-02 -7.5668565928936005e-02 -3.6885321140289307e-02 -1.6421549022197723e-02 4.2335432022809982e-02 3.8209795951843262e-02 -1.6903983429074287e-02 -7.5625434517860413e-02 -1.5247984789311886e-02 1.0995836555957794e-01 3.1518273055553436e-02 -6.8378902971744537e-02 3.5443563014268875e-02 -5.7606097310781479e-02 4.8542924225330353e-02 5.0472550094127655e-02 -8.8417574763298035e-02 5.9068411588668823e-02 -3.3411223441362381e-02 4.4820912182331085e-02 -8.3897523581981659e-02 1.1139919981360435e-02 -5.0540059804916382e-02 -9.8799012601375580e-02 -5.2130926400423050e-02 5.6775532662868500e-02 -8.3213364705443382e-03 6.9440379738807678e-02 -7.9370252788066864e-02 6.2885726802051067e-03 -6.3505910336971283e-02 7.5216054916381836e-02 -1.0575259476900101e-01 7.8413419425487518e-02 -1.2028459459543228e-01 -5.3161703050136566e-02 1.0854914784431458e-01 1.6983047127723694e-02 6.4685069024562836e-02 7.9388163983821869e-02 -2.1291559562087059e-02 -6.4943604171276093e-02 -5.2487872540950775e-02 -4.8959206789731979e-02 -8.1620551645755768e-03 -1.2811197340488434e-01 -4.6408656984567642e-02 -4.2035445570945740e-02 7.1124203503131866e-02 7.0820003747940063e-02 9.7271464765071869e-02 -3.9256546646356583e-02 -1.4099857769906521e-02 9.8249740898609161e-02 7.6096765697002411e-02 -4.8971865326166153e-02 -5.7325035333633423e-02 8.6430981755256653e-02 -7.8999333083629608e-02 -6.6653159447014332e-03 5.7639896869659424e-02 5.1859769970178604e-02 -3.5718720406293869e-02 7.4394732713699341e-02 4.9687672406435013e-02 3.7127591669559479e-02 2.3110136389732361e-02 -1.1499501764774323e-02 9.6075043082237244e-02 8.0710649490356445e-02 -1.1126971989870071e-01 -9.4613932073116302e-02 1.2114743888378143e-01 -4.9198869615793228e-02 1.1291959136724472e-01 -5.5137805640697479e-02 -5.4684773087501526e-02 -5.1857016980648041e-02 3.6841765046119690e-02 1.0587044060230255e-01 5.6638345122337341e-02 -1.8979769200086594e-02 -6.8611666560173035e-02 9.1701440513134003e-02 -6.3067540526390076e-02 -3.5374209284782410e-02 9.4345897436141968e-02 -2.2245189175009727e-02 -2.1229641512036324e-02 5.9572868049144745e-02 6.5080253407359123e-03 -1.4802914857864380e-01 2.4403261020779610e-02 1.8077755346894264e-02 -3.2527446746826172e-02 1.0053312033414841e-01 -1.2222103029489517e-01 -3.5479016602039337e-02 9.8251260817050934e-02 -7.8413091599941254e-02 3.0402302742004395e-02 -1.6567539423704147e-03 -3.8306638598442078e-02 9.9842436611652374e-02 7.7831737697124481e-02 -2.7807580307126045e-02 -6.9289654493331909e-02 4.3732687830924988e-02 1.8702073022723198e-02 -5.1284436136484146e-02 6.7977510392665863e-02 2.6742806658148766e-03 6.2142990529537201e-02 -7.5221188366413116e-02 9.3495408073067665e-03 3.6467291414737701e-02 9.3661241233348846e-02 -5.6206572800874710e-02 -1.3574886135756969e-02 -9.4956234097480774e-02 7.5365260243415833e-02 -4.6391207724809647e-02 3.5328507423400879e-02 6.3624754548072815e-02 -9.4968662597239017e-04 -2.4910325184464455e-02 -8.6071945726871490e-02 -1.4104281552135944e-02 -2.1537080407142639e-02 -2.2212035953998566e-02 8.3387061953544617e-02 1.8124021589756012e-03 -1.2170058675110340e-02 4.2564040049910545e-03 8.2951858639717102e-02 -1.2721314094960690e-02 -5.4607796482741833e-03 -7.2471331804990768e-03 -6.1755977571010590e-02 6.2424514442682266e-02 1.2713299691677094e-01 1.8090403173118830e-03 1.5363295376300812e-01 -9.6297010779380798e-02 -8.5002355277538300e-02 8.2550898194313049e-02 5.4384185932576656e-04 3.4455053508281708e-02 -7.0673726499080658e-02 6.4166896045207977e-02 3.9879132062196732e-02 -7.7315359376370907e-03 2.6536846533417702e-02 4.7235056757926941e-02 6.3638607971370220e-03 -1.1375693604350090e-02 -6.4824283123016357e-02 -2.8607327491044998e-02 -1.0588829964399338e-01 -1.0569505393505096e-01 7.2674632072448730e-02 6.4425542950630188e-02 -1.0617372393608093e-01 -7.5638502836227417e-02 2.3190027102828026e-02 1.1588595807552338e-01 5.8618932962417603e-03 2.2096761967986822e-03 -5.0024367868900299e-02 -1.5893356874585152e-02 1.0601003468036652e-01 2.6420652866363525e-02 -4.5740779489278793e-02 -5.2358318120241165e-02 -6.1503052711486816e-02 4.5862350612878799e-02 9.2170044779777527e-02 1.1184884235262871e-02 -6.2573305331170559e-04 -5.4569330066442490e-02 -3.9797924458980560e-02 -9.3321532011032104e-02 -6.5183557569980621e-02 3.3690046519041061e-02 -2.5465879589319229e-02 3.3191006630659103e-02 2.7217080816626549e-02 -2.2384701296687126e-02 1.2085452908650041e-03 1.1334708891808987e-02 -1.0163674503564835e-01 -1.0002142935991287e-01 -7.7930562198162079e-02 6.7883908748626709e-02 -1.0606129467487335e-01 -5.3797759115695953e-02 9.5419287681579590e-02 -8.1401333212852478e-02 2.4547023698687553e-02 -4.2730495333671570e-02 -3.5783980041742325e-02 -5.0828322768211365e-02 -1.0537520796060562e-01 1.5243281610310078e-02 3.6864105612039566e-02 3.5085372626781464e-02 -5.2918635308742523e-02 -8.6969435214996338e-02 -2.6452846941538155e-04 -1.1032045586034656e-03 -4.3530009686946869e-02 4.5650117099285126e-02 -1.0256440145894885e-03 -4.6557236462831497e-02 6.8598589859902859e-03 -7.7896617352962494e-02 3.6742459982633591e-02 8.0632660537958145e-03 -5.5265706032514572e-02 5.3158909082412720e-02 -6.1649139970541000e-03 -7.6651453971862793e-02 5.6537710130214691e-02 5.4324757307767868e-02 3.6300640553236008e-02 -6.7984379827976227e-02 -9.9705882370471954e-02 8.5173785686492920e-02 5.0053454935550690e-02 1.5639825724065304e-03 -1.4348945580422878e-02 -3.1050035730004311e-02 -4.0286727249622345e-02 -9.7565844655036926e-02 9.5946483314037323e-02 -7.8840419650077820e-02 -2.1020265296101570e-02 6.7323423922061920e-02 6.0058195143938065e-02 -6.1499800533056259e-02 -8.9752845466136932e-02 -6.0334471054375172e-03 -8.6106806993484497e-02 4.0346775203943253e-02 -5.2460916340351105e-02 5.2090078592300415e-02 7.5955420732498169e-02 -3.0430896207690239e-02 4.6612536534667015e-03 8.2717664539813995e-02 -1.3178932713344693e-03 4.4679394923150539e-03 -2.6340574026107788e-02 -2.3630533367395401e-02 -1.6059428453445435e-02 2.5903783738613129e-02 8.4619097411632538e-02 -8.7645672261714935e-02 -8.8628873229026794e-02 6.5677843987941742e-02 1.0960105061531067e-01 -9.9165104329586029e-03 1.0377164185047150e-01 3.4567952156066895e-02 -7.5428083539009094e-02 3.4935373812913895e-02 -7.2350062429904938e-02 6.4579814672470093e-02 6.3807502388954163e-02 -1.0229700803756714e-01 -9.6388816833496094e-02 1.6060439869761467e-02 1.0477364808320999e-01 -1.3557763770222664e-02 7.0825316011905670e-02 -2.5402706116437912e-02 -4.1538245975971222e-02 2.6909423992037773e-02 8.6227238178253174e-02 -4.0870334953069687e-02 3.7469018250703812e-02 -6.3190668821334839e-02 -9.7600638866424561e-02 7.3670834302902222e-02 -2.3505335673689842e-02 -1.0487635433673859e-01 1.0288003832101822e-02 -6.0117091983556747e-02 -9.2293150722980499e-02 -1.0341394692659378e-01 -8.4403730928897858e-02 5.8474954217672348e-02 -2.2889856249094009e-02 7.2881571948528290e-02 7.3927365243434906e-02 -1.3774773105978966e-02 7.7942118048667908e-02 9.1100856661796570e-02 -1.0200655460357666e-01 4.9366974271833897e-03 5.2150852978229523e-02 2.0493593066930771e-02 -4.0229283273220062e-02 -8.8410899043083191e-02 -8.4899112582206726e-02 2.1909328177571297e-02 -4.8273716121912003e-02 -7.6095983386039734e-02 -4.9543399363756180e-02 9.8630219697952271e-02 -5.1230497658252716e-02 1.9869111478328705e-02 7.7184565365314484e-02 2.8734123334288597e-03 -2.8041575103998184e-02 -4.2951166629791260e-02 7.7435702085494995e-02 8.6535722017288208e-02 -7.4175387620925903e-02 -3.3959671854972839e-02 -4.4503200799226761e-02 7.5278244912624359e-02 5.6490559130907059e-02 -7.6056957244873047e-02 -4.5897889882326126e-02 4.8310279846191406e-02 -9.7514934837818146e-02 7.8742653131484985e-02 -7.7086195349693298e-02 5.0846364349126816e-02 1.3605408370494843e-02 -3.9200667291879654e-02 -2.0565973594784737e-02 -1.0596691817045212e-01 7.4855223298072815e-02 9.3333974480628967e-02 5.9975165873765945e-02 3.9106268435716629e-02 -2.6263501495122910e-03 -2.9768180102109909e-02 3.7099085748195648e-02 -7.7789634466171265e-02 -7.8426979482173920e-02 5.7443406432867050e-02 1.0735262930393219e-01 1.0424553416669369e-02 3.3934243023395538e-02 9.3225099146366119e-02 1.1898697353899479e-02 -1.0901677608489990e-01 -2.4185126647353172e-02 -6.2474921345710754e-02 8.0608420073986053e-02 7.7815689146518707e-02 6.8176575005054474e-02 -4.2799465358257294e-02 4.6563439071178436e-02 -1.0605676472187042e-01 1.4540723524987698e-02 7.7410601079463959e-02 -6.7134618759155273e-02 -7.3948696255683899e-02 6.3040219247341156e-02 8.2063123583793640e-02 -8.6956292390823364e-02 -2.4630278348922729e-02 2.3102646693587303e-02 -8.2330964505672455e-02 4.5329663902521133e-02 2.0660623908042908e-02 -7.0327207446098328e-02 1.0619080066680908e-01 8.0815643072128296e-02 5.7932589203119278e-02 9.0679191052913666e-02 3.6258943378925323e-02 -6.0727644711732864e-02 3.9470862597227097e-02 -3.4920714795589447e-02 7.6476700603961945e-02 8.7276495993137360e-02 6.8827405571937561e-02 7.4391938745975494e-02 -8.6394166573882103e-03 -5.4537616670131683e-03 9.4064839184284210e-02 -7.2056606411933899e-02 -6.5572403371334076e-02 9.6742391586303711e-02 -6.2151022255420685e-02 9.7632929682731628e-02 -7.4239210225641727e-03 3.7574556190520525e-03 3.6813694983720779e-02 -6.3666716217994690e-02 -1.0716500692069530e-02 2.5759892538189888e-02 2.8598804026842117e-02 -6.3399560749530792e-02 5.0855241715908051e-02 -7.8609354794025421e-02 1.7710279673337936e-02 2.1023873239755630e-02 -8.1736817955970764e-02 1.5634277835488319e-02 -2.2729195654392242e-02 9.1100163757801056e-02 -6.7623145878314972e-02 7.9662017524242401e-02 6.6815405152738094e-03 -1.0698907822370529e-01 -1.1634318158030510e-02 3.1606409698724747e-02 -6.0140114510431886e-04 -1.0406786948442459e-01 5.6812804192304611e-02 -1.5815585851669312e-02 6.4486674964427948e-02 9.9804066121578217e-02 9.4917386770248413e-02 9.2775814235210419e-02 -3.4976709634065628e-02 -3.5284653306007385e-02 1.6955943778157234e-02 5.8406591415405273e-02 -8.8471360504627228e-02 -7.9032078385353088e-02 3.5297099500894547e-02 -3.1723588705062866e-02 4.8850914463400841e-03 -6.9261617958545685e-02 2.3340240120887756e-02 -3.1904021743685007e-03 1.0017617046833038e-01 1.6806643456220627e-02 -6.3490726053714752e-02 4.9418613314628601e-02 7.1038715541362762e-02 -6.1097336001694202e-03 -7.7885292470455170e-02 -2.5430770590901375e-02 -7.5327061116695404e-02 2.1545104682445526e-02 -4.0306393057107925e-02 4.2011741548776627e-02 8.4058530628681183e-02 -7.1788653731346130e-02 7.2572082281112671e-02 1.2545557692646980e-02 -6.6218217834830284e-03 -1.6469839960336685e-02 1.6311958432197571e-02 9.3129880726337433e-02 3.2869115471839905e-02 -8.7315082550048828e-02 -8.0011717975139618e-02 4.7146495431661606e-02 -5.1856208592653275e-02 7.2112485766410828e-02 4.2649853974580765e-02 1.0344555974006653e-01 1.0826661437749863e-01 5.3312972187995911e-02 4.7857936471700668e-02 -6.1534110456705093e-02 5.0804458558559418e-02 8.1761509180068970e-02 1.8536895513534546e-02 -2.4477720260620117e-02 -2.4756688624620438e-02 2.8317317366600037e-02 -6.6505461931228638e-02 -7.0855163037776947e-02 4.4254314154386520e-02 -5.0209436565637589e-02 -8.5618652403354645e-02 -4.8089746385812759e-02 1.3646344654262066e-02 2.0186858251690865e-02 -1.4229972148314118e-03 4.6176582574844360e-02 -1.3455445878207684e-02 2.1769426763057709e-02 -7.2669796645641327e-02 -9.6484132111072540e-02 5.0018083304166794e-02 -8.9154958724975586e-02 -4.5861884951591492e-02 -5.0631087273359299e-02 -1.1354978196322918e-02 -6.2019871547818184e-03 -4.7157630324363708e-02 -6.5302893519401550e-02 7.9488018527626991e-03 8.8163904845714569e-02 4.0669314563274384e-02 -6.1998613178730011e-02 5.4707590490579605e-02 -8.6393974721431732e-02 7.2658255696296692e-02 4.1652116924524307e-02 -5.8292839676141739e-02 -3.7631429731845856e-02 -4.9402471631765366e-02 2.6735724881291389e-02 5.2054967731237411e-02 1.1464479565620422e-01 8.2834884524345398e-02 -6.0207143425941467e-02 -1.3166321441531181e-02 -8.4151625633239746e-02 7.8006178140640259e-02 5.4169215261936188e-02 -2.2420659661293030e-03 -9.9217053502798080e-03 9.3341223895549774e-02 6.8958313204348087e-03 7.3978155851364136e-02 -2.0995901431888342e-03 8.9980497956275940e-02 3.1845286488533020e-02 -6.0461189597845078e-02 5.4215740412473679e-02 -9.3786470592021942e-02 5.1096066832542419e-02 -2.7352971956133842e-03 8.5077211260795593e-02 2.9201973229646683e-02 -1.4570259489119053e-02 4.5403309166431427e-02 -6.8333603441715240e-02 -1.0342065989971161e-01 -1.0160560160875320e-01 6.7525595426559448e-02 -1.1874625831842422e-01 7.9302422702312469e-02 -4.1706304997205734e-02 1.0775759816169739e-02 7.9834297299385071e-02 6.2913358211517334e-02 -7.9921685159206390e-02 -9.5118053257465363e-02 -1.1694651842117310e-01 -6.8026043474674225e-02 2.2214170545339584e-02 -9.3623295426368713e-02 -2.2790407761931419e-02 5.6027941405773163e-02 2.2172503173351288e-02 -8.8391415774822235e-02 -3.0816871672868729e-02 4.8173930495977402e-02 5.5525456555187702e-03 -1.8672790378332138e-02 -9.3131400644779205e-02 5.5778194218873978e-02 -5.5498186498880386e-02 4.2073003947734833e-02 1.2941291555762291e-02 8.6902990937232971e-02 -1.6536431387066841e-02 -1.2240570038557053e-01 -9.8316363990306854e-02 3.4411411732435226e-02 8.3834603428840637e-03 -5.0359506160020828e-02 -1.1617863178253174e-01 6.8865180946886539e-03 2.8432169929146767e-02 1.0727051645517349e-01 -2.2517930716276169e-02 2.9854809865355492e-02 -7.3466666042804718e-02 -7.3195338249206543e-02 9.2579008196480572e-05 1.0581652075052261e-01 -7.1607224643230438e-02 6.9660410284996033e-02 1.2341084890067577e-02 4.4481784105300903e-02 7.1942508220672607e-02 -9.4061642885208130e-02 2.1605120971798897e-02 -1.0201954841613770e-01 2.3853549733757973e-02 8.9982397854328156e-02 -5.1076538860797882e-02 -4.0763612836599350e-02 8.0886818468570709e-02 -7.5049743056297302e-02 1.3087983243167400e-02 9.3338355422019958e-02 5.9825990349054337e-02 -9.9701369181275368e-03 8.8717013597488403e-02 5.8906625956296921e-02 -5.2688580006361008e-02 3.0002495273947716e-02 -6.4229778945446014e-02 -3.0440052505582571e-03 -6.7103663459420204e-03 6.8608142435550690e-02 -3.3415291458368301e-02 1.1345715075731277e-01 -7.5670972466468811e-02 1.0370953381061554e-01 -3.6817915737628937e-02 -1.9983051344752312e-02 1.1844462156295776e-01 4.9485247582197189e-02 -2.2016910836100578e-02 -7.2228416800498962e-02 -1.1310049146413803e-01 -7.0619501173496246e-02 -1.0003916919231415e-01 4.1814506053924561e-02 9.5943585038185120e-02 9.3173692002892494e-03 -9.5658212900161743e-02 -6.6392965614795685e-02 5.6957527995109558e-02 -4.5092143118381500e-02 -7.2193872183561325e-03 -6.1986580491065979e-02 -9.8117500543594360e-02 -9.3644246459007263e-02 1.2978726625442505e-01 -8.6576707661151886e-02 3.0607502907514572e-02 6.6078320145606995e-02 -4.4505577534437180e-02 7.4595004320144653e-02 -1.6530079767107964e-02 -5.3214441984891891e-02 -6.9616943597793579e-02 5.7621836662292480e-02 8.1855989992618561e-02 4.0435392409563065e-02 2.7395367622375488e-02 4.8128068447113037e-02 -3.5835932940244675e-02 7.2228021919727325e-02 8.6070477962493896e-02 3.4259986132383347e-02 -9.3951448798179626e-02 -3.9886817336082458e-02 -5.1675625145435333e-02 7.7107511460781097e-02 5.9355129487812519e-03 1.0432884842157364e-01 -1.3109683990478516e-01 1.6388718038797379e-02 -4.9483828246593475e-02 4.8607569187879562e-02 -2.6481004897505045e-03 9.3078026548027992e-03 6.4857371151447296e-02 -1.1368674784898758e-01 6.1214253306388855e-02 -8.2982681691646576e-02 1.1114460229873657e-01 8.9769288897514343e-02 1.3310628943145275e-02 -6.0384534299373627e-03 1.0000211745500565e-01 -1.2630409561097622e-02 1.1372085660696030e-01 8.9513458311557770e-02 3.7248432636260986e-02 -1.1577706784009933e-02 3.6705829203128815e-02 -9.9210552871227264e-02 -8.4793791174888611e-02 4.8746172338724136e-02 3.3249542117118835e-02 1.3597926124930382e-02 -1.1377149075269699e-01 -1.0099841654300690e-01 -1.2378757447004318e-01 -2.1085212007164955e-02 9.4943635165691376e-02 2.5816664099693298e-02 -2.2247843444347382e-02 3.9975158870220184e-02 1.9659357145428658e-02 -1.1125542968511581e-01 5.2256491035223007e-02 4.0434151887893677e-03 -6.9796830415725708e-02 6.1299245804548264e-02 8.2193396985530853e-02 -3.2842684537172318e-02 1.0586258023977280e-01 -2.8820771723985672e-02 -4.9992438405752182e-02 -3.7655450403690338e-02 6.0003306716680527e-02 7.0484451949596405e-02 -3.9793472737073898e-02 5.5699098855257034e-02 9.6917839255183935e-04 2.4803021922707558e-02 -2.2602578625082970e-02 -4.8339612782001495e-02 3.1927533447742462e-02 1.0385945439338684e-02 3.5059679299592972e-02 2.2466091904789209e-03 1.0025845468044281e-01 -2.3767735809087753e-02 -1.1012936383485794e-01 3.0919170007109642e-02 6.6591389477252960e-02 3.7331029772758484e-02 3.6226235330104828e-02 -5.5668700486421585e-02 3.8238864392042160e-02 1.2703597545623779e-01 -5.5273536592721939e-02 1.0336453467607498e-01 -1.0926568880677223e-02 1.0461566597223282e-01 2.8503019362688065e-02 -3.0474498867988586e-02 4.2748417705297470e-02 -3.6469221115112305e-02 2.7153773233294487e-02 8.2387596368789673e-02 1.8623281270265579e-02 1.1326552182435989e-01 -6.6096462309360504e-02 -3.9781546220183372e-03 4.6044059097766876e-02 8.9033961296081543e-02 7.9103134572505951e-02 1.2594844400882721e-01 -9.4520233571529388e-02 5.8613222092390060e-02 6.1064437031745911e-02 4.6439103782176971e-02 -9.7053334116935730e-02 -4.6462420374155045e-02 -6.2622666358947754e-02 4.4109746813774109e-02 9.2884652316570282e-02 -4.1179314255714417e-02 1.0693278908729553e-01 9.4399034976959229e-02 -9.5620438456535339e-02 6.3190884888172150e-02 9.4771973788738251e-02 6.2140286900103092e-03 -5.2492816001176834e-02 6.5352924168109894e-02 -3.2628491520881653e-02 -8.2689337432384491e-02 -2.4191495031118393e-02 5.2562940865755081e-02 -8.0132067203521729e-02 -1.8844937905669212e-02 -1.5757044777274132e-02 4.0143292397260666e-02 1.0470261424779892e-01 -1.0540243238210678e-01 -3.1784694641828537e-02 -8.6982674896717072e-02 -2.3927593603730202e-02 -3.6593679338693619e-02 6.6317528486251831e-02 -6.1030585318803787e-02 1.3452759012579918e-02 6.9134578108787537e-02 -2.4019934237003326e-02 -3.5360246896743774e-02 -9.4821326434612274e-02 1.8288120627403259e-02 3.2539006322622299e-02 8.3835333585739136e-02 7.5129896402359009e-02 -1.1172829568386078e-01 5.8708887547254562e-02 4.3427079916000366e-02 1.2982736527919769e-01 5.3083501756191254e-02 -1.0610875487327576e-01 5.4403744637966156e-02 -9.3991681933403015e-02 -4.7416727989912033e-02 -6.4237400889396667e-02 9.5937468111515045e-02 -2.4126457050442696e-02 6.7956894636154175e-02 7.2652384638786316e-02 1.3286397792398930e-02 9.2490904033184052e-02 -9.3375869095325470e-02 1.7074797302484512e-02 -5.2391956560313702e-03 3.2178308814764023e-02 -2.6969388127326965e-02 5.1890768110752106e-02 -2.6521077379584312e-02 -4.5300919562578201e-02 -2.3136856034398079e-02 2.8734980151057243e-02 -5.8334507048130035e-03 4.9543254077434540e-02 4.3302170932292938e-02 -3.7038687616586685e-02 -7.9381242394447327e-02 -1.8696146085858345e-02 8.8262476027011871e-02 -7.3009897023439407e-03 6.0628805309534073e-02 -3.1891431659460068e-02 1.3499775528907776e-01 -4.5723933726549149e-02 2.8067134320735931e-02 -1.0614112764596939e-01 -3.7020489573478699e-02 6.8643294274806976e-02 -9.2142678797245026e-02 -1.0080461204051971e-01 -1.1388607323169708e-01 -2.1670615300536156e-02 -5.9001196175813675e-02 1.5296550467610359e-02 -9.4300024211406708e-02 9.2917628586292267e-02 -1.8471011891961098e-02 -1.1811032146215439e-01 -9.0010941028594971e-02 4.5296616852283478e-02 -2.3072160780429840e-02 -7.7602572739124298e-02 -7.2693333029747009e-02 9.5193222165107727e-02 1.0109178256243467e-03 9.1049045324325562e-02 1.0993583500385284e-01 1.7567086964845657e-02 -1.2419338338077068e-02 -1.1657118052244186e-01 -9.0314105153083801e-02 -6.2474641948938370e-02 2.2575918585062027e-02 3.5843189805746078e-02 -1.1575075238943100e-01 7.0351071655750275e-02 -7.7770136296749115e-02 -7.0134557783603668e-02 -9.5460124313831329e-02 1.0258429497480392e-01 -9.6951723098754883e-02 3.0124953016638756e-02 -9.5466263592243195e-02 6.3389800488948822e-02 -4.7447081655263901e-02 -7.3735125362873077e-02 1.0524979978799820e-01 -8.0506853759288788e-02 1.0327717661857605e-01 -6.0805231332778931e-02 5.0630908459424973e-02 8.1936433911323547e-02 4.2582005262374878e-02 -8.6918704211711884e-02 -2.2493114694952965e-02 6.7001551389694214e-02 9.8127275705337524e-02 7.7122084796428680e-02 -1.0590174794197083e-01 -1.7374901100993156e-02 5.2360121160745621e-02 1.0463929176330566e-01 1.0225029289722443e-01 -6.8163804709911346e-02 -5.5633980780839920e-02 -2.9452206566929817e-02 2.1526245400309563e-02 -4.5337423682212830e-02 -9.9230796098709106e-02 -6.4463235437870026e-02 1.0686655342578888e-01 1.1315437965095043e-02 9.7068041563034058e-02 -5.0071664154529572e-02 -8.6751796305179596e-02 -3.4162968397140503e-02 6.4135864377021790e-02 -3.4583523869514465e-02 -4.1735626757144928e-02 5.4377812892198563e-02 -1.1049482226371765e-01 3.1054781749844551e-02 8.8092751801013947e-02 8.3652488887310028e-02 -3.6977238953113556e-02 3.4534581005573273e-02 2.1972993854433298e-03 -1.8187684938311577e-02 -1.0616614669561386e-01 8.5331112146377563e-02 2.9074924066662788e-02 1.0316134244203568e-01 -8.8335305452346802e-02 -4.0686912834644318e-02 -5.9785218909382820e-03 7.5422473251819611e-02 -4.8845224082469940e-02 -2.5109613314270973e-02 7.5364321470260620e-02 -1.9985309336334467e-03 2.7823781594634056e-02 7.5390450656414032e-02 6.5597486682236195e-03 6.3235484063625336e-02 -9.8076917231082916e-02 -2.9741143807768822e-02 -6.9644637405872345e-02 -2.2872167173773050e-03 4.2115014046430588e-02 7.0394761860370636e-02 -2.8420221060514450e-02 5.5672459304332733e-02 -6.5011627972126007e-02 3.5517547279596329e-02 1.0562040656805038e-01 -1.0583046823740005e-02 -1.1014184355735779e-01 2.3655705153942108e-02 5.4765921086072922e-02 1.2370812706649303e-02 -4.1793443262577057e-02 -1.3277411460876465e-01 -9.0453058481216431e-02 3.3834494650363922e-02 5.5142082273960114e-02 6.6129095852375031e-02 -7.0967962965369225e-03 3.8009278476238251e-02 -9.0021006762981415e-02 3.2899328507483006e-03 -4.9581468105316162e-02 -8.1519052386283875e-02 -1.0344664752483368e-01 8.4898181259632111e-02 -9.3706369400024414e-02 1.0813880711793900e-02 1.2330096960067749e-01 1.2303004413843155e-01 3.1678088009357452e-02 8.7607070803642273e-02 -8.6770981550216675e-02 9.2051230370998383e-02 4.0045529603958130e-03 -7.8511737287044525e-02 3.3765111118555069e-02 5.5055286735296249e-02 -3.3706083893775940e-02 4.7259382903575897e-02 -3.0122524127364159e-02 -5.1014397293329239e-02 3.5642914474010468e-02 -3.3167663961648941e-02 -1.0826653987169266e-01 4.3471306562423706e-02 3.6894977092742920e-02 -5.9215303510427475e-02 1.9334469689056277e-03 -8.7738102301955223e-03 -5.6511866860091686e-03 6.4073592424392700e-02 2.3779241368174553e-02 9.6860386431217194e-02 -8.4027037024497986e-02 -1.2845539022237062e-03 8.4236070513725281e-02 -7.3612600564956665e-02 5.1546655595302582e-02 5.2262514829635620e-02 4.4450249522924423e-02 -5.7683214545249939e-02 -8.9213848114013672e-03 